0.000178063,-4.51963e-05,6.12139e-05,6.61661e-05,-1.998e-05,5.76056e-06,4.48246e-05,-2.13925e-06,-0.00010432,9.86202e-06,5.63687e-05,1.87432e-05,3.03449e-05,-3.64595e-05,2.39944e-05,-9.07115e-05,-1.93373e-06,-1.01218e-05,5.33524e-05,9.2766e-06,0.000139456,0.000157397,0.000106573,-9.54406e-05,4.51181e-05,-4.07398e-05,7.19826e-05,-8.84553e-05,1.5588e-05,1.37105e-05,8.43828e-05,-0.000126657,-5.48023e-05,-0.000160337,7.58029e-05,2.06836e-05,-9.16191e-05,2.7015e-06,-8.66311e-06,7.91315e-05,-0.000115842,-0.000124498,7.99934e-05,-0.000130923,1.00573e-05,-1.3855e-05,0.000140155,-0.000300315,7.5987e-05,4.76923e-05,7.35031e-05,-1.69349e-05,-1.33506e-05,6.82446e-05,-3.79394e-05,0.0001546,-7.7164e-05,-3.25022e-05,-4.48045e-05,8.59138e-05,-1.57685e-05,0.000113426,-3.72596e-05,0.000131479,1.74492e-05,-0.000127146,-4.30969e-05,-0.00010797,-8.20932e-05,0.000112598,-0.000116307,7.42665e-05,4.71415e-05,-0.000124573,-0.000131525,1.99201e-05,-4.45063e-05,-0.000108726,8.85119e-06,8.40579e-05,-0.000114171,6.5508e-05,2.60614e-05,0.000184132,6.38411e-05,0.000216658,4.38489e-05,-9.85222e-05,-0.000118121,8.11099e-05,6.06629e-05,-0.000137607,0.000120024,0.000104098,7.42216e-05,0.000139239,-6.38067e-05,2.43463e-05,0.000132756,-0.00011901,6.53194e-05,-4.58654e-05,-6.79362e-05,-1.25296e-05,-9.69492e-05,5.72132e-05,-4.18822e-05,-1.61134e-05,-0.000104032,0.000101615,-1.9217e-06,4.18506e-05,-5.19587e-05,-3.37336e-06,3.73394e-05,-5.61112e-05,-7.68451e-05,-8.48156e-05,3.06069e-05,-8.81087e-05,3.96499e-05,-9.40264e-05,-4.66548e-05,-6.09809e-05,1.69368e-05,0.000107826,1.68493e-05,8.61934e-05,-8.42259e-05,7.34551e-05,-4.91236e-05,-0.000164281,-4.15204e-05,-4.37421e-05,0.000119261,-0.000118498,0.000147461,-9.80435e-05,4.0598e-06,8.49962e-05,3.15146e-05,-4.876e-05,-6.49215e-05,0.000114524,2.71444e-05,0.000272911,2.19887e-05,-4.2863e-05,0.000110117,1.80892e-05,-0.000205956,2.51638e-05,0.000120738,-2.27687e-05,0.000271313,-0.000100842,-0.000144109,7.30643e-05,-0.000175199,6.39952e-05,-3.35507e-06,7.55427e-05,8.06499e-05,-5.91637e-05,-0.000104228,-8.52993e-05,0.000181637,0.000132322,-3.67642e-05,-9.88079e-05,-5.68104e-06,-3.81102e-05,6.9917e-05,-1.86951e-05,-6.71488e-05,1.64029e-05,-0.000195323,9.96182e-05,-6.33736e-05,-0.000242066,0.00022893,2.62152e-05,0.000123279,-0.000139108,-7.19365e-05,7.86439e-05,-2.85664e-05,0.000129729,2.02691e-05,-0.000205894,0.000103443,0.000313223,7.21346e-05,-4.86643e-05,7.27618e-06,-5.08715e-06,0.000128542,0.000184214,-0.000179642,2.92807e-05,-4.81454e-05,-8.6124e-06,-0.000193666,0.000134334,0.000170116,5.33719e-05,2.74196e-05,-0.000219196,6.78179e-05,5.84862e-05,-4.1017e-05,-9.59384e-05,-3.61709e-05,0.000102033,0.00015401,-0.000197604,8.72102e-05,-1.66763e-05,-4.91818e-05,6.18173e-06,3.37005e-05,4.83092e-05,4.52155e-05,-6.23405e-05,0.000156989,5.08214e-05,-9.57283e-05,-9.23546e-05,-0.000134309,8.71989e-05,0.000152215,-1.05555e-05,-2.58217e-05,3.99856e-05,0.000134341,-8.75266e-05,0.000180105,0.000110421,9.50013e-06,-2.3085e-05,-5.40044e-06,-8.59198e-06,-2.58406e-05,9.19104e-05,4.50053e-05,-8.59598e-05,0.000178328,-5.96373e-05,4.32806e-05,-7.64837e-05,-8.99906e-05,-3.86116e-05,-1.44421e-05,-5.18251e-05,0.000161042,-3.91885e-05,0.000100604,1.12731e-05,0.000165414,9.50159e-05,-0.000175822,-1.30866e-05,-1.41584e-05,4.9007e-05,0.000110779,9.18127e-05,-6.18193e-05,-7.35519e-05,0.000129967,8.76565e-05,7.73077e-05,0.000142559,-6.97897e-05,3.46171e-05,9.29804e-05,6.01302e-05,3.16482e-05,-6.42825e-05,-0.000167147,-8.77321e-05,4.38761e-06,-6.566e-05,1.42227e-06,3.71893e-05,-8.99438e-05,-4.41241e-05,-1.59128e-05,2.28507e-05,0.000121231,8.92427e-05,1.13295e-05,7.62255e-05,0.000238857,1.9454e-07,-4.13846e-05,0.000166054,-4.32484e-05,2.53439e-05,-0.000118802,0.000114346,-0.000171445,-6.27463e-05,0.000119334,-0.000137742,2.66322e-05,-2.84083e-05,-4.68469e-05,0.000171577,2.44803e-05,-5.34171e-05,-7.38045e-05,-5.95174e-05,0.000116498,-8.55773e-06,3.94115e-05,6.31154e-05,7.03528e-05,0.000118061,-4.74318e-05,-2.13605e-05,3.96643e-05,7.4896e-06,-7.64808e-05,5.81278e-06,-1.06794e-05,-1.68498e-06,-3.82615e-05,-7.7985e-05,6.84434e-05,-1.6374e-05,-1.76474e-05,-4.52724e-05,5.31802e-05,-9.03884e-05,4.89856e-05,6.75063e-05,-0.000185763,-6.0165e-05,8.42547e-05,-0.000103773,1.7081e-05,5.2247e-05,-0.000102368,3.37387e-05,-1.4152e-05,6.86225e-05,-7.90432e-06,8.05908e-05,-3.68982e-05,-0.000102623,-3.09672e-05,-9.122e-05,-0.000219217,-0.000115445,0.000121839,3.27801e-05,-0.000139112,0.000132171,8.20326e-05,-4.49435e-05,7.92933e-05,3.99245e-05,-4.36934e-05,-7.54946e-06,9.5654e-05,-0.000160583,-4.3937e-08,8.60354e-05,-7.04121e-05,-3.8552e-05,-5.24068e-05,-1.34848e-05,-1.70243e-05,-3.24055e-05,-0.000304201,3.77436e-05,-0.000100756,7.81034e-05,-6.00309e-05,2.21051e-05,6.08086e-05,8.23533e-05,-8.76861e-05,-0.000202399,-1.47451e-06,-1.01602e-05,-8.16622e-05,3.61021e-05,-9.72008e-05,-6.90509e-05,1.83955e-05,9.26129e-05,-5.83143e-05,-7.16786e-05,-0.000197325,0.000134106,5.66074e-05,-5.00381e-05,0.000157816,4.22831e-05,5.65103e-05,-1.06959e-05,-3.51054e-06,-6.94204e-05,-9.8848e-05,7.79677e-05,5.59772e-05,-7.29169e-05,0.000165165,-8.93465e-05,3.54431e-05,-2.3833e-05,8.05619e-05,0.000132082,-0.000107403,-3.07213e-05,-8.34479e-05,8.88911e-05,1.84411e-06,2.90773e-05,-8.43782e-05,-0.000175805,5.94779e-05,-0.000106746,-7.38378e-05,0.000177679,3.79133e-05,-8.47526e-05,-1.64422e-05,6.47765e-05,-7.27552e-06,6.2694e-05,0.000131381,-6.66954e-06,4.38193e-05,-2.57293e-05,-0.000120893,4.84173e-05,-9.16582e-05,7.35264e-05,-8.49298e-05,5.22073e-05,-0.00011045,-9.29137e-05,-6.05197e-05,-0.000154197,7.88792e-05,-9.33374e-05,4.4556e-05,1.25849e-05,-0.000179078,-0.000139019,-0.000149424,5.80187e-05,8.4838e-05,1.13148e-05,8.64338e-05,-8.51548e-05,-0.000170348,7.04618e-05,-2.98978e-05,-8.3568e-05,0.000145566,9.38363e-05,2.37591e-05,-3.7109e-05,5.74278e-05,-6.83623e-05,4.2782e-05,-0.000143481,0.000136833,2.22385e-05,-3.16475e-05,-0.000221297,8.26498e-05,-7.64525e-05,-5.95135e-06,-9.26884e-05,9.71944e-05,-0.000111966,0.000111087,-0.000176233,-5.36051e-05,-7.4365e-05,5.45696e-05,-7.1363e-05,0.000105616,-6.99249e-05,-0.000109032,4.08812e-05,3.41341e-05,-9.13086e-05,-1.04826e-05,-0.000217915,4.91933e-05,-0.000209758,1.3028e-05,-8.03584e-05,4.32529e-05,0.000141344,0.000207118,0.000100159,0.000209731,-7.7647e-05,8.71581e-05,0.000147697,1.65311e-05,5.80162e-05,-1.45967e-06,-0.000111481,0.000156235,3.53247e-05,0.000129842,-0.000112594,-6.81095e-05,-8.45786e-05,-3.95697e-05,-0.000138201,0.000110854,-0.000142699,-3.20631e-06,0.000129708,8.79798e-05,4.61004e-05,-2.16453e-05,1.76656e-05,7.60272e-05,9.28986e-05,-5.06223e-05,7.15216e-05,-7.71609e-05,-0.00012987,9.395e-05,-5.00023e-05,-5.84661e-05,0.000250194,7.30633e-05,-6.13471e-05,-0.000238634,7.14211e-05,-2.62063e-05,-0.000103345,0.00010329,-3.55926e-05,-3.21057e-07,-4.81211e-07,1.21133e-05,6.47338e-05,0.000119887,-2.45557e-05,-4.18437e-05,-7.71907e-05,-7.40426e-05,0.000106828,9.22564e-06,5.48577e-05,8.00198e-05,0.000159331,-8.03665e-05,0.000144686,-0.000214661,-8.15001e-05,3.36754e-05,0.000213004,0.000154297,0.000278674,-8.92921e-06,-0.000248702,-6.37355e-05,-5.74809e-06,0.000145511,5.85959e-05,-0.000120073,3.99356e-05,0.000104775,3.24535e-05,4.2051e-05,-0.000162734,-2.47176e-06,-4.55225e-05,-4.30236e-05,6.32683e-06,7.72995e-06,-4.61787e-05,0.00020402,0.000123367,6.40127e-05,9.21946e-05,-0.00013538,-7.11877e-06,-6.09955e-05,-3.93326e-05,0.00026697,7.01378e-05,8.05254e-06,9.04455e-05,1.52943e-05,-0.000120879,0.000170765,0.000169189,-0.000132785,2.20876e-05,0.000171431,9.43605e-05,-0.000127225,1.6766e-05,0.000120201,-2.39869e-05,3.37486e-05,-5.37002e-05,-6.0479e-05,-9.20679e-05,5.07593e-05,-5.20028e-05,3.93513e-05,0.000113448,-1.99076e-05,-1.15602e-05,-9.41194e-05,-0.000214089,3.85173e-05,6.6507e-05,-1.75184e-05,-6.51741e-05,8.75596e-05,2.66976e-06,-0.000102558,-6.34754e-05,3.20815e-05,5.70748e-05,-1.89316e-05,4.85585e-05,3.89832e-05,5.22211e-05,0.000120939,4.08642e-05,-0.000180333,-4.7544e-05,-4.68271e-05,-6.90717e-05,5.62302e-05,-5.82064e-05,1.92316e-05,0.000196119,7.08199e-05,-4.27526e-05,7.84244e-05,-0.000110486,-0.000160766,-3.17349e-05,-6.614e-05,3.27389e-05,-5.47158e-05,0.000145803,7.70484e-05,-0.000172359,2.98828e-05,7.71689e-05,-0.000113772,-0.000131086,0.000108778,0.000125509,1.96274e-05,-1.24367e-05,0.000158438,-8.49344e-05,-3.66894e-05,-0.000178103,-3.23414e-05,8.41038e-05,0.000191793,-1.13831e-06,3.17087e-06,4.21083e-05,0.000161582,-6.08064e-05,-5.13043e-05,-9.54718e-06,0.000143352,6.08902e-05,-6.79471e-06,-4.47867e-05,6.32414e-05,4.35625e-05,-7.89365e-05,0.000158006,-8.4735e-05,4.64843e-05,-0.000178733,-5.11949e-05,-5.04954e-05,-5.47541e-05,-0.000137172,7.54214e-05,0.000154511,-2.62412e-05,4.24547e-05,5.67937e-05,-7.57407e-05,3.92192e-05,-3.67297e-05,5.38241e-05,1.10836e-05,0.000123619,1.86901e-06,-5.57886e-05,3.19505e-05,-6.07903e-05,7.28622e-05,7.16002e-05,7.20667e-05,-9.58386e-05,0.000105693,0.000112593,9.76622e-05,0.000141197,-6.07747e-05,6.39538e-05,-3.23639e-05,6.18984e-06,8.67373e-05,9.5519e-05,-0.000161658,0.000169405,-7.1309e-05,0.000100274,-7.92156e-06,-5.39354e-05,0.000168573,0.000216828,9.43052e-05,-0.000105223,4.25155e-05,-0.000114078,5.87669e-05,-0.000201134,0.000114611,7.87771e-06,-5.47886e-05,-5.79495e-05,6.77799e-05,3.31731e-05,4.78181e-05,-3.57816e-05,-9.25033e-05,2.60736e-05,-0.000122599,6.91327e-05,0.000150862,6.02389e-05,-1.31088e-05,6.5949e-05,-7.60613e-05,-0.000167693,-2.47386e-06,-2.16745e-05,-0.0001137,-0.000153843,4.3268e-05,2.98763e-05,-9.30921e-05,6.88078e-06,-2.25128e-05,6.07531e-05,5.01839e-05,2.42845e-05,-0.00015386,-6.92229e-05,2.58353e-05,-0.000107398,-3.2639e-05,-4.2153e-05,-0.000110826,-7.73084e-05,-3.1384e-05,-0.000152339,5.4866e-05,3.14847e-05,0.00026326,-0.000104929,-7.24667e-05,-6.34326e-05,-0.000120882,7.15406e-05,0.000198923,2.92888e-05,1.85859e-05,2.39921e-05,-0.000105488,0.000151562,-2.57598e-05,-9.4178e-05,0.000129528,-2.49911e-05,-1.62028e-06,-9.19976e-05,-2.04762e-05,-0.000102861,-3.40298e-05,-0.000125476,6.16185e-06,-6.38935e-06,-0.000125852,-0.000177619,0.000166999,-0.000118337,-0.000105071,3.78639e-06,8.89053e-05,0.000233897,6.53856e-05,2.32488e-05,9.74013e-05,6.69081e-05,-5.21657e-05,3.31038e-05,6.30802e-05,-0.000103777,2.65651e-05,5.46727e-05,-0.000100168,-5.56608e-05,7.69411e-05,2.68706e-05,0.000122114,-2.39893e-06,5.90668e-06,2.19343e-05,-0.000193157,-9.98704e-05,0.000101115,-9.76736e-05,-7.41833e-05,-0.000223628,-7.48806e-05,0.000309553,-8.85445e-05,2.37664e-05,0.000206976,2.46146e-05,-5.8471e-05,7.74361e-05,3.89399e-05,0.000112828,-2.00842e-05,-5.26323e-06,4.07741e-05,-1.41983e-05,-9.76383e-05,-0.000108339,0.000100029,-8.24293e-05,-3.28769e-05,0.000129784,4.99327e-05,-4.09478e-05,7.75749e-05,-0.000132483,-0.000131787,-2.9419e-05,0.00012732,-0.000128808,-1.07735e-05,9.37615e-05,7.0796e-05,5.50721e-05,-0.000161834,9.38348e-05,0.00014689,6.64272e-06,-0.000113218,-7.78324e-05,5.50154e-05,-1.04135e-05,0.000127854,-1.15744e-05,-3.19022e-05,0.000173628,9.34107e-05,8.27474e-05,-0.000117427,-6.25496e-05,-8.22703e-05,-0.000113298,5.54661e-05,-6.87781e-05,7.99694e-05,-0.000230864,-1.47006e-05,3.82896e-05,-0.000153756,-9.11259e-05,2.91935e-05,0.000160437,3.58494e-06,-0.000127137,-3.58191e-05,2.08403e-05,0.000102663,6.35794e-05,0.000142061,-6.8248e-05,0.000123279,-0.000130081,-0.000137229,7.73123e-05,2.74361e-05,-4.38052e-05,3.39946e-05,2.93805e-05,0.000164556,-6.79114e-05,2.43772e-05,0.000104402,-5.95188e-05,-0.000225761,-2.31877e-05,-5.79633e-05,-0.000128381,0.00016716,-0.000128724,-0.000166403,-1.03418e-06,6.3246e-05,-3.85395e-05,2.75012e-05,1.75228e-05,-3.84105e-05,-3.89547e-05,1.11731e-05,0.000176126,3.18826e-06,2.13505e-05,7.94351e-05,-0.000191115,2.59948e-05,-2.80065e-05,-0.000132527,-3.76445e-05,8.92305e-05,-4.49356e-05,0.000241972,3.19354e-05,-6.56118e-06,-0.000120345,-7.47311e-06,5.26209e-05,0.000139828,0.000128556,4.48253e-05,-4.38217e-05,-1.14403e-05,6.80847e-05,4.23112e-05,9.15792e-05,4.62222e-05,-0.000131499,-6.21964e-05,2.62577e-05,-0.000186975,-6.337e-05,-0.000110562,-0.000140563,-8.03811e-05,8.03372e-05,8.90614e-05,2.56974e-05,7.1042e-06,-8.02394e-05,4.60796e-05,7.95168e-05,-2.51885e-05,-6.32526e-05,8.42024e-05,-1.98371e-05,4.18256e-05,-6.20747e-06,2.11922e-05,-5.15243e-05,-6.11567e-05,-6.697e-06,5.72272e-05,0.000150945,6.18365e-05,-3.86506e-05,3.97123e-05,8.38699e-05,-8.58655e-05,3.41495e-06,-0.000134888,-7.19336e-05,-0.000217799,-9.22749e-05,9.73715e-05,-0.000165066,5.40234e-05,5.2284e-06,9.05506e-05,-7.65237e-05,-2.02171e-05,-0.000114566,5.52479e-05,0.000169529,-0.000270819,-6.87136e-05,-0.000162744,6.43319e-05,9.84303e-05,-4.49155e-05,-0.00020788,0.000172355,-9.58088e-05,0.00014513,0.000116354,8.29192e-05,-0.000103336,2.08075e-05,-9.3865e-05,2.2717e-05,8.29936e-06,-6.48413e-05,-0.000101102,-0.00010025,-2.18677e-05,-8.68944e-06,2.72963e-05,0.000170684,0.000116615,0.000198045,-0.000196215,-9.20571e-06,-2.73909e-05,-6.91663e-05,-6.29527e-05,-7.36349e-05,-3.21434e-05,6.52608e-05,-0.000132048,-1.47233e-05,0.000285294,9.05019e-05,0.00015166,-8.89596e-05,0.00018964,4.43458e-05,0.000141013,0.000175133,-2.2825e-05,-4.93582e-05,-0.000182775,-3.12067e-05,0.000169535,3.76145e-07,6.88989e-05,-4.69623e-05,-0.000275183,0.000176704,0.00023821,8.29315e-05,-1.31231e-05,3.0752e-06,-6.04908e-05,-9.70985e-05,8.25442e-05,0.00011722,-0.000176814,-9.45e-06,-0.000148208,-9.1909e-05,-1.88123e-05,-2.6317e-05,-4.43924e-05,7.30663e-05,7.43724e-05,-1.0835e-05,8.00834e-05,-2.40175e-05,0.000137704,-4.60644e-05,-0.000180929,0.000103497,4.27627e-06,-4.23883e-05,0.000257145,-2.72942e-05,3.32316e-05,-0.00024532,-0.000131744,0.00011457,0.000166134,0.000102899,0.000217985,0.000133709,-0.00014931,-8.23338e-06,0.000229351,0.00020592,0.000105879,5.22349e-05,-7.42136e-05,0.000134009,-0.000100247,5.66676e-05,5.35103e-05,-0.000145724,-0.000119062,0.000140198,4.67487e-05,6.13724e-05,-3.43388e-05,-0.000144112,5.74175e-06,-6.71018e-05,1.87986e-06,4.51714e-05,-0.000120655,0.000131285,-9.55478e-05,3.27287e-05,-0.000156524,6.03762e-05,0.000147422,0.000154083,-1.77928e-06,0.00016528,1.85178e-05,3.90446e-05,0.000113767,5.57698e-05,0.000203811,-0.000139983,-0.000158728,-4.393e-05,3.0715e-05,3.49195e-05,2.23054e-05,-5.0995e-05,0.000163054,4.33206e-05,0.000175499,-0.000135856,2.44466e-05,-7.45838e-05,-0.000179686,0.000132453,0.000106045,-7.35888e-05,0.000103355,-6.70946e-05,4.45366e-06,0.000117937,6.55263e-05,-8.11651e-05,8.52635e-05,-1.94881e-05,9.35682e-05,-6.48751e-06,0.000167546,-9.09517e-05,3.97968e-05,0.000137325,-2.87056e-05,-7.5225e-05,0.000186333,0.000173813,7.1722e-06,-0.000114659,3.01412e-05,-3.63396e-05,8.87116e-05,4.73657e-05,-1.19816e-05,-6.1124e-05,0.000149046,5.27479e-05,8.01181e-05,-0.000151442,0.000171163,-4.58232e-05,1.57085e-05,9.70105e-05,-0.00021609,-0.000124612,7.152e-05,-8.47567e-05,0.000132613,7.51574e-05,0.000125871,-5.91743e-05,7.63188e-05,1.03003e-05,0.000128312,8.31045e-05,4.6609e-05,-1.21943e-05,-0.000109796,0.000100235,3.28756e-05,-2.96099e-05,-1.26905e-05,3.13126e-05,0.000128193,-2.08169e-05,0.000100868,-2.19973e-06,-5.23934e-05,-0.000144659,0.000222711,0.000138364,1.35023e-05,-1.07334e-05,7.3964e-06,-7.96521e-05,5.1234e-05,8.29478e-05,0.000133621,8.96461e-05,-3.52014e-05,-0.000116792,-1.57306e-05,-6.06236e-06,7.01882e-05,8.23551e-05,1.77777e-05,8.49218e-05,0.000171273,4.29897e-05,0.000148862,-9.44604e-05,-6.91953e-05,-4.88167e-05,7.23083e-05,-4.55862e-05,-0.000158804,-5.40093e-05,7.59085e-05,-9.82595e-05,-2.42385e-05,-2.68039e-05,1.08107e-05,7.56344e-05,2.30534e-05,0.000233983,-8.39476e-05,7.76237e-05,6.33709e-05,-0.000173459,2.52469e-06,2.9236e-05,1.12443e-05,6.28972e-05,9.98763e-05,-0.000126872,-3.30171e-05,-9.80169e-05,-3.7872e-05,-0.00016792,-3.28396e-05,-0.000115549,-3.61199e-05,5.80159e-05,-5.92958e-06,0.000137519,-0.00010738,8.32479e-05,-1.60936e-05,8.14585e-05,-2.18453e-05,0.000114367,9.85049e-05,0.000210126,3.13746e-05,-5.56302e-05,-7.75668e-05,2.69352e-06,3.21843e-05,1.98752e-05,0.000167769,-4.09227e-05,-8.49145e-05,4.70236e-05,-6.43651e-05,1.72572e-06,1.69308e-05,0.000110234,0.000100287,0.000127205,-1.77151e-05,-1.34301e-06,-5.23141e-05,-6.75421e-05,2.93086e-05,4.40302e-05,4.02613e-07,5.22773e-05,5.70578e-05,0.000133353,6.53676e-06,1.65694e-05,5.76398e-05,-0.000147559,3.20259e-05,-0.000170752,1.50103e-05,-7.15507e-05,5.5344e-05,4.27005e-05,-0.000236292,0.000108426,-7.0272e-05,9.52911e-05,7.12212e-05,-7.07366e-05,0.000101309,-1.82336e-05,-0.000262717,-6.68215e-05,-2.14074e-05,-8.67392e-05,-2.51655e-05,7.69923e-05,5.41214e-05,-3.99982e-05,-8.13835e-05,0.00028419,-0.000122744,-7.36501e-05,4.25526e-05,-0.000206419,3.28105e-05,-8.51034e-05,0.000157003,-0.000121409,-0.000106894,6.03803e-05,0.000102094,0.000108326,-0.000177555,4.92394e-05,-2.1162e-05,-6.29094e-05,6.84367e-05,0.000128021,-0.000122003,-4.20579e-05,-6.30181e-05,1.98683e-05,0.000101164,-4.6937e-06,-0.000137296,0.000123624,1.48669e-05,0.000123639,-0.00010641,1.70242e-05,4.65147e-06,-0.000166579,-0.000100186,3.28538e-05,-0.000111555,0.000219337,0.00018462,9.9663e-05,-6.02438e-05,5.05492e-05,-3.65616e-05,0.000164823,0.000242736,-4.69622e-05,5.24025e-05,0.000137704,-9.07807e-05,5.83599e-05,0.000108411,-2.44255e-05,-7.66441e-05,-8.64501e-05,-0.000103146,5.54234e-05,-1.53503e-05,7.67882e-05,1.80291e-05,-0.000163772,-9.52492e-06,-4.07822e-06,-7.63732e-06,2.49316e-05,2.8146e-06,6.80734e-05,1.75412e-06,3.64301e-05,-2.05709e-05,6.4685e-05,-3.21825e-05,5.87099e-05,-1.48854e-05,-1.0479e-05,1.29656e-05,-0.00011906,9.29391e-05,-3.90401e-05,8.50984e-05,-0.000103396,1.50847e-05,5.69288e-05,3.45982e-05,0.000123879,3.61527e-05,4.12495e-05,-0.000122628,4.59117e-05,2.70833e-05,5.4589e-05,8.70383e-05,7.47817e-06,3.65161e-05,0.000133014,3.18576e-05,2.62068e-05,-2.59184e-05,-0.000165831,-6.35161e-05,0.000112663,0.000190759,-3.92017e-05,-0.00021884,-0.000119677,8.83572e-06,-0.000215502,-0.000244256,4.28894e-05,4.41293e-05,-7.04555e-05,-1.28863e-05,-6.85582e-05,-0.000195497,-2.6507e-05,-0.000121318,0.000177593,7.66792e-05,0.000151214,-9.72335e-06,8.85003e-05,8.76557e-05,4.03034e-05,-2.72642e-05,3.17025e-05,-0.000115911,5.20865e-05,-4.26084e-05,2.88803e-05,-0.000171447,6.84511e-05,9.16135e-06,-5.29963e-05,-0.000155012,-0.000211009,-6.28566e-05,0.000142176,0.000104448,4.07055e-05,9.15458e-05,-1.95396e-05,-6.35092e-05,-3.18494e-05,-5.83285e-05,2.65164e-05,5.78741e-05,0.000259219,3.20481e-05,-8.4973e-05,4.90509e-05,5.76888e-05,-0.000124216,4.81692e-05,-4.52081e-05,-6.33658e-05,-8.80254e-05,2.85429e-05,-1.77857e-05,-7.67526e-05,-1.1428e-05,-7.96762e-05,3.09089e-05,0.000144042,0.000259997,-1.60029e-05,1.49865e-05,5.62821e-05,-2.90896e-05,0.000154261,0.000101207,-7.06662e-05,0.000162082,-0.000253857,-2.05742e-05,9.52298e-06,-3.58115e-06,-0.000158249,-1.80865e-05,8.19694e-05,-3.23382e-06,-7.26204e-05,2.07607e-05,0.000141887,0.000128493,5.08963e-05,-9.48384e-05,8.53606e-05,-8.47021e-05,-6.87199e-05,0.000129654,0.000112293,-3.94319e-05,5.9217e-05,9.37064e-05,2.07535e-05,8.87692e-05,6.80244e-05,3.15488e-05,4.89233e-05,3.27399e-05,-2.67715e-05,6.91352e-05,-2.69485e-05,-0.00024073,-0.000133127,-5.5972e-05,-6.49254e-05,0.000158947,-4.12515e-06,0.000137372,9.82202e-05,7.43776e-05,-1.74672e-05,-9.8515e-05,7.35431e-05,-5.89855e-05,0.000106554,-0.000186075,-6.46718e-05,-8.10865e-05,8.11403e-05,7.52388e-06,0.000133696,4.72865e-05,0.000144818,-9.77854e-06,7.59628e-05,-0.000133344,0.000177002,-3.92868e-05,1.06132e-05,5.05417e-05,-8.05994e-05,-8.73197e-05,0.000110196,-1.77446e-05,-0.000125694,-0.000155703,0.000131738,0.000146809,-0.000123845,1.82348e-05,0.000112259,-4.64682e-05,-2.37285e-05,0.00012423,-0.000108581,8.95684e-05,6.66496e-05,4.19632e-05,-6.7287e-05,-0.000156309,9.00451e-05,0.000182692,-0.000150015,2.18977e-05,3.96331e-05,-0.000144252,-3.04854e-05,2.73772e-05,0.000119553,-0.000225546,-9.28657e-05,-7.34545e-05,0.000221005,-0.000129892,-1.71588e-05,0.000280373,2.73797e-06,4.1587e-05,2.68624e-05,4.40093e-05,-0.000145619,-6.37425e-06,-1.43134e-05,0.000133393,3.55581e-05,-6.58961e-06,3.17026e-05,-7.71702e-05,-0.000124293,0.000106297,-0.000240886,0.000153477,-7.82265e-05,-0.000199874,-2.85577e-05,-0.000135738,4.42093e-05,1.03717e-05,-7.14533e-05,4.15881e-05,-9.40372e-05,-9.16209e-05,0.000199208,-0.000103912,-7.59189e-05,0.000217541,0.000105623,5.39846e-05,-7.8977e-05,-0.000186763,-5.96403e-05,-0.00011848,0.000146193,0.000176595,-3.39106e-05,8.38947e-05,-6.55797e-05,0.000116221,0.000175961,-1.82423e-06,9.98169e-05,7.68245e-05,-0.000125687,4.99109e-05,-8.90089e-05,-8.86098e-05,-6.44455e-05,6.40147e-05,2.44635e-05,-3.17051e-05,1.06596e-06,2.28981e-05,-0.000131011,0.000152649,-9.15102e-05,-1.69317e-05,-9.13726e-05,1.81532e-05,0.000103731,6.03046e-05,3.42309e-05,-6.41657e-05,0.000155163,4.42296e-05,6.91945e-05,0.000124287,-3.15325e-05,-5.279e-05,-0.000164995,0.000113048,-2.32459e-05,-2.62777e-05,-6.82795e-05,-0.00015754,1.32355e-05,0.000130391,-3.94177e-05,5.03221e-05,0.000160726,6.9214e-06,-0.000179996,6.16925e-05,0.000209759,0.000103482,3.5017e-06,7.39092e-05,4.24046e-05,-4.52374e-05,0.000107153,0.000154254,8.58413e-06,4.186e-05,0.000135791,-2.98316e-05,-4.19209e-05,-4.0303e-05,-3.02137e-05,-1.99846e-06,-4.67727e-05,0.00012364,-5.66403e-05,7.6049e-05,-0.000146346,3.3256e-06,-0.000143898,-0.000113213,-0.00025352,-4.22856e-05,5.66643e-05,-2.33313e-05,0.000129863,-4.34863e-06,-3.33507e-05,7.14329e-06,4.08772e-05,-0.000156674,0.000207057,0.000193911,9.98041e-05,3.30022e-05,0.000134251,0.000119546,3.5789e-05,-6.00845e-06,-7.01978e-05,6.88289e-05,-6.50154e-05,0.000110667,-0.000233025,-8.31276e-05,-7.14214e-06,-1.09835e-05,-0.000100483,3.88206e-05,-3.29874e-05,7.84518e-05,8.34429e-06,-9.52204e-05,9.2238e-05,0.000105706,-5.12984e-05,9.32083e-05,3.02308e-05,-8.75527e-06,-0.000123919,4.81278e-05,-2.70007e-05,-0.000214197,-6.30078e-05,-0.000149142,-8.7755e-05,-8.64933e-05,-2.29932e-05,-0.000107549,4.67518e-05,-4.4188e-05,0.000158813,1.63956e-05,-0.000158149,-0.000107412,0.000108292,5.13887e-05,0.000295704,-0.000102272,-8.47791e-05,0.00029122,-8.35939e-05,7.57308e-05,4.77224e-05,-7.57168e-05,-0.00022312,-2.11254e-05,-7.36481e-06,-8.81477e-05,2.09034e-05,0.000101892,-4.80382e-05,3.42408e-05,5.78196e-05,0.000175931,0.000136782,0.00013517,4.92435e-05,-0.000128421,8.05448e-05,5.90045e-06,6.45205e-05,-4.09772e-05,0.000160289,9.29583e-05,6.89637e-06,2.23147e-05,-0.000131213,1.97508e-05,5.26791e-05,-6.8022e-05,-0.000229238,7.05242e-05,2.50408e-05,-0.000123692,-8.28778e-05,9.86918e-06,2.05981e-05,1.9861e-05,0.000144787,-6.49949e-05,-6.26972e-05,0.000112438,-3.47862e-05,0.00018493,0.000140532,6.91301e-05,-8.98491e-05,-6.13668e-05,-8.86332e-05,0.00023848,5.79183e-05,-5.85401e-05,4.59112e-05,-3.71108e-05,-0.00010572,-3.61485e-05,-1.75754e-05,6.81721e-05,-3.20678e-05,-0.00016994,-0.000233503,-2.04052e-05,0.000104915,-4.36094e-05,4.00244e-05,0.000110378,-5.80602e-05,-0.000102099,-7.09945e-05,-1.08991e-05,-0.000148252,-9.27697e-06,0.000128965,3.24508e-05,-5.4762e-05,0.000202282,-0.000111301,-4.37424e-05,-2.50019e-06,7.93455e-06,9.36178e-05,-1.26673e-05,9.48261e-05,9.79747e-06,0.000217732,2.42426e-05,-3.208e-05,0.000177454,-2.51484e-05,-9.47385e-05,3.39738e-05,-1.84896e-05,-5.80298e-05,7.29117e-05,-0.000118838,-0.000189481,4.46752e-05,-0.000128475,-5.53178e-06,-7.9734e-05,-7.19383e-05,-0.000187686,7.08735e-05,5.85205e-05,0.000138062,-5.12998e-05,3.41364e-05,-3.63189e-05,1.89616e-05,1.95192e-05,6.79739e-06,3.09603e-05,0.000135704,-7.83926e-05,-5.58276e-05,-3.0956e-05,3.22449e-05,-2.75913e-05,7.26648e-06,-6.88698e-05,7.79816e-05,-0.000111489,-1.1367e-05,-3.75478e-05,7.02967e-05,-8.04901e-05,5.65734e-05,-9.09702e-06,-0.000149011,-0.000157231,0.000179311,2.93229e-05,6.33535e-05,-3.17177e-05,1.23486e-05,-2.94543e-05,0.000165737,0.000104729,8.68192e-05,4.54255e-05,-3.12195e-05,-9.99119e-06,-4.87519e-05,3.09208e-05,9.20819e-05,8.68861e-05,-0.000124119,0.000205929,-2.67105e-05,-0.000170095,-5.70543e-05,-4.48581e-05,-0.000107138,6.32476e-06,0.000161586,6.51095e-06,-1.54939e-05,9.22232e-06,-0.000100063,-9.57411e-05,-0.000177189,-0.000157053,-7.46358e-05,-1.11772e-05,-5.54701e-05,5.6938e-06,-4.11773e-05,0.000109801,-4.29315e-05,-3.04776e-05,4.51375e-05,5.12016e-05,0.000124436,-0.000100901,2.33148e-05,-4.4994e-06,-2.01929e-05,-0.000188321,6.89522e-06,5.00247e-06,0.000104055,-0.000123924,2.62502e-05,0.000108085,0.000149839,4.14696e-05,-4.68155e-05,4.96845e-05,1.12419e-05,-8.06434e-05,7.95984e-05,2.96029e-06,-1.50345e-05,3.32189e-05,-0.000139343,-0.000117923,0.000215072,2.23908e-05,9.20299e-05,-3.01799e-05,-0.000177699,-0.000166696,2.32448e-05,6.96668e-05,9.25136e-05,8.74324e-05,0.000246357,2.3156e-05,0.000151605,1.16485e-05,-4.45438e-05,-7.30801e-05,3.19938e-05,1.78252e-05,3.78883e-05,-2.31756e-05,9.31462e-05,0.000152758,6.67778e-05,-6.26946e-05,6.97784e-05,9.78171e-05,0.000203246,-8.47548e-05,7.52023e-06,-4.09104e-05,-3.04175e-05,-6.25713e-05,-5.99806e-05,-5.0637e-05,-0.000120638,-3.18855e-05,-2.97997e-05,4.03895e-05,9.01024e-07,3.00191e-05,3.36521e-06,-0.000170944,2.10644e-06,-0.000132963,0.000124372,6.72026e-05,0.000118647,-0.000140482,-3.49738e-05,-4.4117e-05,8.10186e-05,-4.17428e-05,1.5944e-05,1.44451e-05,-7.02325e-05,-4.67832e-05,-1.30401e-05,-7.93104e-06,1.47909e-05,-2.17723e-06,-0.000163955,1.78734e-05,5.24954e-05,-5.79055e-05,0.000164215,-2.43128e-05,2.76122e-05,-2.77765e-06,-6.76457e-05,5.43567e-05,9.18565e-05,7.33427e-05,-0.000132632,0.000128832,6.31785e-05,-2.07385e-05,0.000250008,5.46689e-05,3.52986e-05,0.000183171,6.87496e-05,0.000156209,9.92438e-05,2.83865e-06,7.81045e-05,0.000204872,1.38621e-05,4.66445e-05,1.1906e-05,0.000106987,0.000126897,-7.56771e-05,-0.000158201,7.35489e-05,-0.000126104,-3.16837e-05,-5.42319e-05,9.32897e-06,-0.000149955,-8.03162e-05,8.78456e-05,-0.000199996,0.000115793,-8.73419e-05,-5.85071e-05,-8.06322e-05,-0.000118083,-2.06318e-05,-5.93224e-05,0.000122554,0.000120146,8.98159e-05,3.31878e-05,-2.78486e-05,-4.83649e-05,0.000213675,7.39528e-05,-5.72454e-05,-0.000149895,-0.000100174,9.11639e-05,0.0001969,0.000149143,-0.000100763,-1.66486e-05,-4.28453e-05,-0.00013268,-4.19489e-05,-0.000119768,-8.62282e-05,4.37717e-05,-0.000131404,-0.000101516,5.95776e-05,0.000156236,6.36115e-05,7.44045e-05,-7.56479e-05,-7.15079e-05,-0.000160258,2.02203e-05,9.59679e-05,-2.71554e-05,-5.82229e-05,3.74707e-05,-7.94165e-06,-1.82152e-05,2.16024e-05,-0.000103261,6.28973e-05,-7.5886e-05,4.97816e-05,2.24248e-05,0.000186514,0.000193269,3.38546e-06,-1.17374e-06,8.48965e-05,-1.38899e-05,-7.88993e-05,-0.000208053,-0.000116833,-9.99321e-05,6.34307e-05,-2.87299e-06,4.18514e-05,3.22319e-05,0.000196879,6.52262e-06,-4.56014e-05,9.9843e-05,-0.000279378,-0.000114834,4.43119e-05,7.39147e-05,-0.000166407,-0.000125309,6.36534e-05,0.0001274,9.47734e-05,-0.000107989,0.000113527,0.000261132,3.77506e-06,8.84375e-05,-3.26058e-05,6.04591e-05,0.000170917,-6.69097e-05,-9.28307e-05,-7.53118e-05,0.00012979,7.1401e-05,-3.78971e-06,2.17406e-05,9.56473e-05,-0.00010751,-0.000250866,-8.84315e-05,-5.03422e-05,5.095e-05,0.00011146,-8.44654e-05,0.000162203,7.00662e-05,-4.86848e-05,-1.16262e-05,8.60368e-05,5.02624e-06,1.30058e-05,8.33718e-05,2.95233e-05,7.82208e-06,7.02503e-05,-0.000115244,7.77263e-05,6.68546e-05,-0.000119262,-0.00015259,0.000123937,-5.06366e-05,-0.000219018,0.000121438,-0.000139025,4.77649e-05,9.47754e-05,-1.40851e-05,-5.74346e-05,0.000221381,0.000156446,2.7523e-05,-3.24485e-06,0.000126581,6.85972e-05,2.84272e-07,6.16881e-05,-4.37042e-05,7.68185e-05,-2.715e-05,-5.73621e-05,-4.20616e-05,3.63129e-05,-8.92099e-05,0.000119545,4.71525e-05,-0.000140798,2.09868e-05,2.20681e-05,-0.00013788,0.000100566,-2.41227e-05,-8.19291e-05,3.2002e-05,4.80011e-05,8.58489e-05,-1.13153e-05,-2.57884e-05,0.00015644,-1.8948e-05,-3.43646e-05,-4.7755e-05,7.84336e-06,4.48838e-05,-4.08405e-05,5.02817e-05,1.65913e-05,3.54386e-05,-8.10574e-05,-2.30881e-05,1.32595e-05,-5.71897e-05,7.95741e-07,-0.000190795,2.31671e-05,-3.80497e-06,0.000144507,0.000247451,3.68428e-05,2.48549e-05,-0.000141152,0.000146499,9.08867e-06,-8.39676e-05,0.000170503,-6.06962e-05,0.000121597,-0.00016469,-4.90242e-05,4.07652e-05,-7.27668e-06,9.5635e-07,8.52526e-05,-7.32223e-05,1.12797e-05,5.2711e-05,-5.17927e-05,-4.05914e-05,-0.00012485,0.000125741,4.58009e-05,1.20781e-05,-0.000122415,-8.9159e-05,0.000180655,2.06817e-05,5.23177e-06,2.58131e-05,7.93854e-06,-3.96526e-05,-3.25819e-05,-1.60766e-05,-1.58141e-05,0.000194158,-2.09613e-05,7.14871e-05,6.93636e-05,0.00011999,0.000153741,-0.000145282,1.05592e-05,-6.85311e-06,6.81478e-05,-3.26117e-05,8.88076e-05,3.70588e-05,9.88805e-06,-1.73896e-05,2.69578e-05,8.43738e-06,0.000191049,0.00011108,6.82418e-05,-7.78341e-05,0.000127544,0.000214744,0.000143728,-5.20798e-05,0.000107782,7.06012e-05,1.55494e-05,6.84618e-05,-3.74588e-05,2.07196e-05,-1.72253e-05,4.16059e-05,0.000171488,0.000109822,-8.26235e-05,-5.33743e-05,-2.42748e-05,-6.63939e-05,3.6146e-05,-3.53616e-05,-4.81834e-06,3.4255e-05,7.73866e-05,-0.000200635,-2.35127e-05,-5.19944e-05,-1.85901e-05,-8.67165e-05,7.60248e-05,2.86906e-05,-9.40048e-05,-3.48363e-05,5.26219e-05,-7.08781e-05,-0.000151252,-6.97779e-06,5.85063e-05,-1.8199e-05,-5.02605e-05,-8.18639e-05,5.1597e-05,0.000158533,-7.19585e-05,0.000130732,-6.60705e-05,-2.24397e-05,9.87757e-06,-7.48589e-06,4.8577e-05,4.8901e-05,-4.69077e-05,-0.000116684,-0.000106691,-3.20033e-05,5.09547e-05,5.56123e-05,-6.62222e-05,2.8529e-05,-7.29024e-05,0.000254583,-0.000105366,-0.000227901,-0.000166433,0.000199517,-0.000139337,-1.31349e-05,-4.26791e-05,-2.35184e-05,5.82317e-05,5.78263e-05,-5.18925e-06,-8.19057e-05,1.42939e-05,0.0003251,-4.42907e-05,0.000201484,0.000117513,-7.3382e-05,-6.82166e-05,-8.36213e-06,-9.88448e-05,6.27417e-05,-0.00013864,-9.16732e-05,-0.000148106,8.03459e-05,0.000125866,7.33195e-05,5.23989e-05,3.49811e-05,0.000154665,5.4902e-05,0.000132529,0.0002606,-2.17211e-05,-0.000138494,0.000129793,-3.87317e-05,5.44339e-05,-5.86194e-05,-1.12384e-05,-5.97363e-05,1.54002e-05,9.74191e-05,-8.24504e-05,9.95376e-05,-0.000171383,-0.000123631,-6.31051e-05,-1.01133e-05,0.000148662,