-0.00697101,0.0144572,-0.0108301,-0.00241093,-0.0237102,0.0204788,0.0159449,-0.000970122,-0.000398142,0.00929856,1.25631e-05,0.0102283,-0.0165764,0.000759394,-0.00901532,-0.0170135,-0.0173845,0.00582256,0.00949385,0.00526838,-0.0152553,-0.0025466,-0.000514208,0.00336557,-0.00538599,0.00197559,0.0153719,0.011256,0.00493038,0.0068482,0.00772419,0.0222981,-0.000894553,0.00474263,-0.00942138,-0.0011313,-0.00428972,-0.000493929,0.00897009,0.0108816,0.0106858,-0.00236203,0.0122695,-0.0235238,0.000546732,0.0101978,-0.000250284,-0.00550283,0.00968755,-0.00972151,0.0023268,-0.0131567,-0.0173814,0.0150741,0.0150015,0.00635796,0.00352421,-0.00310159,-0.00678218,0.0242851,0.00635386,0.0118581,0.016645,0.00929625,0.00152225,0.0274942,0.00817321,0.012965,-0.00892594,-0.00775331,-0.0139444,0.0133088,0.00620815,0.00436751,-0.0144494,0.00809143,-0.0155376,0.00644971,-0.00473205,0.00124257,0.0052487,0.00195598,0.00849896,-0.0053557,-0.00422866,0.00645227,0.00640744,0.00016343,-0.0116686,0.00748966,-0.000539171,-0.00320053,-0.00777689,0.000710026,0.0140614,0.00742029,-0.00388389,-0.00285791,-0.00160744,0.0125077,0.00884911,-0.00905322,0.014256,-0.013723,0.00606221,-0.0050244,-0.00371434,0.0144522,-0.00540776,-0.00167622,0.0168737,0.000397861,0.00364395,0.011165,0.00747475,-0.0146126,-0.000748001,-0.00931749,-0.000579364,-0.00011045,-0.0120579,-0.037076,-0.00191844,-0.00270553,-0.00224695,-0.0103989,0.0107751,-0.0189927,0.00222411,-0.00503199,5.33394e-05,0.00842204,0.0100558,-0.00611977,0.00126896,-0.0096513,0.0158544,-0.00890704,0.0116646,0.00657521,0.00404854,-0.00335368,-0.00214598,0.00240962,0.00679924,0.0197582,0.000109849,-0.0150851,0.00899782,-0.001097,0.00382263,-0.00803645,0.0024192,-0.00209145,-0.00242515,0.0027808,-0.00588973,-0.00191139,0.0145379,-0.00389658,0.00181544,0.00978484,0.000126627,-0.00260836,0.004688,0.0203329,-0.00574451,0.00530463,0.00373732,-0.000454172,0.0138118,-0.0144188,-0.00136828,-0.00482842,-0.00115902,0.00620438,0.00603099,-0.00757764,-0.00599725,0.0114815,0.000679602,-0.000670719,0.0127206,0.00842106,0.00482364,0.000131723,0.00376827,-0.0105272,-0.00986756,0.0154596,0.0059964,0.017011,0.00284454,-0.0119552,0.0122677,-0.00783662,-0.0112359,-0.0191358,0.0246229,-0.00239675,-0.01554,0.00227952,0.00792568,-0.0112474,-0.00846593,-0.00992615,-0.0016018,-0.00128549,-0.00900272,-0.00894018,-0.021326,0.00179134,0.0101455,0.00293087,-0.00788799,-0.00149799,0.00497534,0.0131876,0.00143299,0.00194072,-0.015776,-0.0155267,-0.0164041,0.00130446,-0.00222082,0.0104526,0.0100727,-0.00540308,-0.00310682,-0.00233062,-0.00180245,-0.00110411,-0.0077945,0.000174785,0.00827622,0.00101417,0.0166033,-0.016322,0.0169897,0.00799037,-0.0123223,0.00309188,0.0129228,-0.00989438,-0.00645111,0.0032567,0.000890306,0.00223082,0.00374279,-0.02557,-0.0107928,-0.00519673,0.0219043,-0.0214286,-0.0116116,-0.00208366,-0.0162943,0.000438461,0.0189043,-0.00562908,0.00331668,-0.00993646,-0.0328228,-0.00183738,0.0148101,0.00152415,-0.00440897,0.0106186,-0.00144629,-0.00679973,0.00780403,-0.00565568,-0.00184621,-0.0135523,-0.00018856,0.00614964,0.00121787,0.000874438,-0.00502015,-0.00996637,-0.00203583,-0.016709,0.0117958,-0.00732731,-0.00808978,0.00369687,-0.00167493,-0.00474665,0.00691498,-3.28284e-05,-0.00434576,0.00418617,0.0128895,-0.016727,-0.0100435,0.00780939,-0.00109406,-0.00560098,-0.000601302,0.00251088,0.00171346,-0.00685102,0.0181592,0.00986056,-0.00357747,0.00546474,-0.00346605,0.00363269,-0.0148542,1.0514e-05,-0.00445085,-0.0049291,-0.000788165,-0.0118865,-0.00245025,0.020004,-0.00087669,0.0171109,0.00994922,0.0112434,-0.0135002,-0.0084614,0.00432533,-0.00741796,-0.00366832,-0.00613361,0.000323241,-0.00469615,-0.0119857,-0.00421628,-0.00512354,-0.000131269,0.0187788,0.00249345,0.0028825,-0.0115969,0.00252068,0.0068765,-0.00949124,0.0124644,0.00718515,0.00308974,0.00414538,0.00557333,0.00784446,-0.00625166,0.00609469,-0.00465095,-0.0151264,-0.00512243,0.00980369,0.00530347,0.00494747,-0.00196719,0.000927724,-0.00993126,0.0127602,-0.00919568,-0.00345378,0.000537056,0.0102166,-0.00511351,-0.00366218,-0.0100798,-0.00476693,0.00809175,0.00349828,0.00112638,0.00230273,0.0165048,0.00506236,0.00277643,0.0204004,0.0152765,-0.0188885,0.00247424,-0.00191963,-0.00527693,-0.0187943,-0.009307,-0.00756084,0.028154,-0.00118199,-0.0102126,0.0237978,0.00110434,0.0269739,-0.0131386,-0.000300829,-0.0272673,0.00798746,-0.0150067,-0.00637221,0.00416815,0.00825834,-0.0132922,0.00174004,0.00456019,0.0223904,0.00573716,-0.00103788,0.00932989,0.00495255,-0.00221488,-0.00631728,-0.00858398,0.000927319,0.00209945,-0.00017605,-0.00852416,-0.00748338,0.0145548,-0.000884299,-0.014006,0.0054754,0.00660211,-0.00813739,0.00945203,-0.00653677,0.000287146,0.0212684,-0.000881889,-0.0122114,-0.00365306,0.00146293,0.00670769,-0.00426277,0.00404188,0.00414612,-0.00695518,0.005549,0.00437591,0.00576677,-0.00547794,-0.00303586,0.0117046,-0.00229317,-0.0119891,-0.00423872,-0.0101531,0.00267533,-0.0181505,-0.0122603,-0.00337112,-0.0111145,0.00140656,0.00138057,0.0167277,-0.00559253,0.0118289,-0.00131426,-0.00671013,0.00327064,-0.00796979,-0.0199148,0.00829232,-0.0146171,0.0172757,-0.0147732,-0.0231858,0.00596847,0.00473994,-0.00145213,0.0331635,-0.00260883,0.00305865,-0.0080464,0.0126269,0.0141363,0.011517,-0.00318401,0.00906109,-0.00847732,0.00982974,-0.00076795,-0.00607196,-0.0146041,0.00447559,0.0215222,0.00965323,0.00789338,-0.0117286,0.0161239,0.00432254,0.00414538,0.00897401,-0.0131982,-0.0144935,-0.00633486,0.013454,0.0074399,-0.0179103,0.00866286,-0.00102867,0.0043795,-0.00333315,0.0131594,0.00960041,0.00159392,-0.00141493,0.0153423,0.00878513,0.0122178,0.0112601,0.0104983,-0.0034905,0.00629302,0.0117376,0.0163686,0.0125433,-0.00497399,-0.00268449,-0.00760023,0.00156126,0.00781342,0.0222393,-0.00509752,0.0164115,0.0033209,-0.0118943,-0.0167332,-0.00540795,-0.00603857,0.00424467,0.0051503,0.0139255,0.00942118,-0.00789191,0.00707057,0.00431241,-0.00783767,-0.0147266,0.00954432,0.0034101,-0.000484511,0.0198596,0.000939566,0.000957814,0.00500241,-0.00643773,0.0155995,-0.00792512,0.0236146,0.00961886,0.000494814,0.00699151,-0.00540242,0.00169874,-0.0197759,-0.00775263,-0.012935,-0.00403521,0.00530237,-0.011494,0.0141364,0.00931443,0.00936653,-0.00736242,0.0120433,0.00153745,-0.000211491,0.0158559,0.00430586,-0.0134931,0.00187321,-0.000103649,-0.0150633,-0.00538128,0.0138474,0.00706371,-0.0134158,0.0123896,0.00146452,-0.00598165,-0.00143309,0.00493777,0.0139362,-0.00368755,0.00913523,0.0112949,0.000876011,-0.00228521,-0.00735803,-0.0118216,-0.00539533,0.00132147,0.00823615,-0.0139087,-0.00111978,-0.00350366,0.0159873,0.0044346,-0.00724257,0.00263647,0.00557327,0.0220581,0.00384759,0.0120225,-0.00392032,-0.00970457,0.00214968,-0.0024702,0.00558613,-0.0105172,0.00660898,0.000465252,-0.015653,-0.00280275,-0.00248258,-0.0115967,0.0060938,0.00429232,-0.0030922,0.00651365,0.0108373,-0.00366167,0.000634924,0.0196171,-0.00889892,0.00570738,-0.00500708,-0.0016504,-0.00439673,-0.00432989,0.00967053,-0.00684427,0.0115783,0.00819344,-0.00879572,-0.0179319,-0.0100646,0.00807264,-0.00492548,-0.00908843,-0.0224099,-0.00871528,-0.00263768,0.0204153,-0.00598891,0.00209362,-0.0107865,-0.00191517,0.0176329,-0.00842213,-0.0101924,-0.0107183,-0.00887147,0.00350228,-0.00222376,0.0041866,0.00784619,0.00705685,-0.00339411,0.000165429,-0.0178779,-0.00150045,0.0044654,0.0107746,-0.00789756,0.00584413,-0.00215057,0.00143603,0.00868244,-0.00174477,0.00176788,-0.000638015,0.00885023,0.00368075,0.00206558,0.00549729,-0.00253247,-0.0145858,0.00985808,0.0181225,0.00909507,0.0146489,-0.00574183,0.00172194,0.000184348,-0.0069176,0.00496246,-0.0296802,-0.00348061,-0.00762395,0.00899022,0.0103571,-0.00755542,0.00841011,0.0059238,0.015261,0.000473616,-0.00436328,0.0178383,-0.00412195,-0.00382515,-0.0026202,-0.000800018,-0.00336745,-0.00636711,-0.014437,-0.00861322,-0.0219951,-0.00302981,-0.00919507,0.00756536,0.0047389,-0.00485732,0.00431599,-0.0132888,0.00165925,0.0200676,0.00890554,0.0168202,0.00761403,-0.000890986,0.0120961,0.00138412,-0.000988471,0.0128235,0.0039802,-0.00516417,-0.013681,0.0105845,-0.00511468,-0.00892608,0.0266524,0.001238,0.00744791,-0.00173873,0.00326162,-0.0210044,0.00777467,0.00623971,0.00495075,-0.0076117,0.00649467,-0.014843,-0.0015345,-0.00177872,-0.000532994,0.00934997,-0.0115853,-0.00448701,0.00271918,0.00883443,-0.00134464,-0.00924573,0.00502222,0.00978638,0.0134902,0.0032079,-0.0118523,0.00764844,0.015772,0.0125643,-0.00182524,-0.0075753,0.00960958,0.00218073,-0.00240572,0.0120499,-0.006119,0.0039485,0.000931712,0.0175469,-0.00270916,-0.00750192,0.00120215,-0.0103149,-0.0058717,-0.0240947,0.00888519,-0.0038766,0.000285967,0.00866288,0.00558079,-0.00613765,-0.0105971,-0.0230216,-0.00599387,0.00648983,0.00479444,0.0015391,-0.0015902,0.00715542,0.00961312,-0.0102902,-0.00929041,0.00702236,-0.015042,0.00778519,-0.00639153,0.0142343,-0.0108284,0.00953113,-0.0017467,0.00694446,-0.0223855,-0.00756564,0.00469609,0.00303819,-0.00311166,0.006873,-0.0144287,-0.0113126,0.0134948,0.00150879,-0.00584925,0.000471388,0.0143577,0.0168368,-0.000221508,-0.0114847,0.00963685,-0.00581702,0.00490298,-0.00421891,0.00693628,-0.00501101,0.00791543,0.000559727,0.0104596,-0.009703,0.0129627,-0.00867604,-0.00264952,-0.002932,-0.00367963,0.000478983,-0.00894458,-0.00557425,-0.00542334,0.00350216,-0.0142688,-0.00603193,-0.000893843,0.00778395,0.0168157,0.00121031,0.00922808,0.00852918,0.012019,-0.0201945,0.0108235,-0.003303,0.00556086,-0.000734597,0.000763801,0.00965414,0.000304324,0.00202876,-0.0106433,-0.0248679,-0.0183495,0.0102254,-0.00184841,0.00550013,0.00690626,-0.00421683,0.0116031,-0.00936595,-0.00328334,-0.00739681,0.00186772,0.0186436,0.00559413,0.0181572,0.00517929,0.0138346,-0.00941387,0.0110359,0.00570773,-0.00958199,0.012612,-0.00203379,0.0055065,-0.00617642,0.00186829,0.0192824,-0.0096623,-0.00461381,0.0120002,0.00106533,0.0227149,-0.0052351,-0.00924812,0.00570187,0.0216601,0.000877203,0.00574981,0.000398443,0.00200606,-0.00320086,0.00420385,-0.00654204,-0.0286874,0.00747663,0.0127071,0.0106968,0.00119706,0.00845633,0.00323884,-0.022118,-0.00342132,-0.0100729,0.0200572,0.0114065,-0.00703441,-0.0226916,0.0121752,0.00519708,-0.0115885,-0.00424264,0.0138966,0.0130625,-0.016878,-0.00284974,0.0142635,0.0176805,0.0145037,-0.00238552,-0.00109151,0.011473,0.00334413,0.00199473,0.00332709,-0.000972596,-0.00902255,0.00598154,0.0141312,-0.00879468,0.00137961,0.00997823,-0.00326678,0.0225635,0.00127298,0.0077679,0.00755007,0.0125222,-0.0149524,-0.0113288,0.00795417,-0.015041,-0.00273146,0.013489,-0.000400433,0.0144569,0.00576103,0.0120473,0.00263302,-0.0021534,-0.00531477,-0.0032867,-0.00523452,0.00853614,0.00270636,0.00321495,0.00282271,-0.00235148,-0.0150409,0.00367574,-0.0299438,0.00756116,-0.0031766,0.00918713,-0.0167794,0.0097735,0.0230011,0.00784895,-0.0117824,0.00614822,-0.0175365,-0.00561262,0.0052518,0.010065,0.0113278,-0.0160022,0.0114052,0.00365684,0.0318331,0.00110327,-0.018331,-0.0112722,0.00274156,0.000735694,0.0142102,0.00627738,-0.00737868,-0.00373763,-0.0108502,-0.00387779,-0.00358994,0.00215755,0.00606697,-0.00147996,-0.00104157,0.0229361,0.0116722,2.28933e-05,-0.000971235,0.00935692,-0.00252511,0.0132593,0.00352984,0.0217267,0.0238137,0.0137902,0.00428739,0.00630592,0.0122501,0.00943111,-0.00182729,0.0023364,0.0176841,-0.0104765,-0.0141302,0.00258247,0.0198111,-0.01629,-0.0119351,0.0108399,-0.00647704,0.00699657,0.0145163,-0.0123074,-0.00225809,-0.00405719,-0.000658844,-0.00973139,0.00795428,0.015014,7.27865e-07,-0.00512571,-0.0166939,-0.00263899,0.00939736,0.00202615,0.00129992,0.00988807,-0.00609007,-0.000923512,0.00633893,-0.00464202,-0.00647307,-0.00360684,0.00265177,-0.0101241,-0.022871,0.0122198,0.0130802,-0.00782484,0.00675896,-0.00333564,-0.00486354,-0.00551092,0.0054739,-0.00795931,-0.00368323,0.0118694,-0.00664902,0.00160228,-0.00283207,0.00827617,-0.0131431,-0.00669424,0.0041691,0.00475349,-0.00536176,-0.0059058,-0.00529355,0.00565848,-0.00320871,0.000243824,-0.000347523,-0.0117055,-0.00451399,0.014892,-0.00826415,0.00415837,-0.0237844,-0.000470766,-0.0167823,0.00308274,-0.00711264,-0.0162977,-0.0129571,0.00845087,0.0201361,0.0145759,-0.0163225,-0.00128581,0.00211999,-0.00303465,-0.00384477,-0.00562198,-8.01616e-05,-0.0022868,0.0121606,-0.0167071,0.00734045,0.00383462,-0.00332263,0.00839853,0.00933921,0.00946465,-0.00107304,0.00729011,-0.00454332,0.00206822,-0.00240785,-0.00765162,-0.00850858,0.00208569,0.0151044,-0.00711414,0.00578398,-0.00738008,-0.00325395,-0.0191574,-0.010061,-0.000326104,-0.00525927,0.00586728,0.015546,0.00513394,0.0150946,0.00455973,-0.00541187,0.0107201,-0.00106866,-0.00276722,-0.00356275,0.00883749,-0.003837,-0.0117062,0.00832707,-0.00987199,0.0143514,0.00401826,-0.0170394,-0.0060177,-0.00291744,-0.00379831,-0.00376964,-0.00606144,-0.00158127,0.0143749,0.000605685,0.0149038,-0.00743348,-0.00709781,-0.00329021,0.0194348,0.00662673,0.000381579,0.00366512,0.00239826,-0.00108437,-0.00721637,-0.00350143,0.00637232,-0.00793595,0.0109424,0.00229808,-0.00296736,-0.00951735,0.00683637,0.0109337,-0.0143764,0.012716,0.0026002,-0.0164175,-0.000746883,-0.00336439,0.00283733,-0.000427427,-0.00456286,8.59493e-05,0.00103152,-0.000232963,0.00673995,-0.00105702,0.0124831,0.00693769,0.003609,0.00432349,0.00560041,0.0223006,0.00760483,-0.0132973,0.00280444,-0.00334865,0.00662888,-0.0112018,0.000300228,-0.00862073,0.00272982,-0.00019853,-0.015958,0.00886763,-0.00471969,-0.00832657,0.00984269,0.00200684,0.00368083,0.0172342,-0.00255901,0.0141182,0.00722721,-0.0122351,0.00453179,0.015566,-0.00538836,-0.00832832,0.00280833,0.00858233,-0.00284318,-0.00527953,0.00490229,0.0240681,0.00462469,-0.00217148,-0.0131726,-0.00191769,-0.00708026,-0.00652186,0.00135623,0.0036785,0.00980752,-0.00151229,0.00482178,-0.00921994,-0.00947107,0.00826141,-0.023286,0.0329734,-0.0188147,-0.00171763,0.00120769,0.0124084,-0.0279089,-0.0102471,-0.00594137,-0.0233756,0.00857197,-0.00165922,0.00222306,-0.00512989,-0.00819313,-0.00232732,-0.00649297,-0.0101068,-0.00749735,0.0229219,-0.00708475,0.00278615,0.00294622,0.023166,-0.00885422,0.00586201,-0.00527489,0.00495252,-0.0238863,-0.0101904,-0.0252225,-0.0138621,0.00335816,-0.0110457,-0.00412156,-0.00334047,0.0120603,0.00293687,-0.00407104,0.0248456,-0.0094172,-0.00562062,-0.000631996,0.0153009,-0.0108168,-0.0130104,-0.00442093,-0.0159199,-0.000529291,0.00697686,-0.000868935,0.0182507,-0.00367847,0.00240022,0.0218154,0.00352169,0.0125946,-0.00280009,-0.0180899,-0.00687086,-0.00307766,0.00423279,0.0105153,-0.0046462,-0.00144208,0.00489445,-0.00232247,0.0129403,0.00557941,0.0099219,0.0235719,-0.00610519,0.0119057,-0.000372639,-0.000685973,0.0194811,0.00839262,-0.00396219,0.00707044,0.00771992,-0.00725955,-0.00208107,0.00373588,0.00231737,-0.0149434,0.0117483,-0.0151075,0.00374164,0.0107885,0.00109025,0.000703932,-0.00370565,-0.0114883,-0.00684618,-0.00295872,-3.24257e-05,0.00758698,-0.0136934,0.0035005,0.00351476,0.00112817,-0.00736537,-0.0132152,0.00705656,2.26847e-05,-0.00531345,0.0175841,-0.00295228,-0.0015619,0.00420523,0.0127192,-0.00930359,0.00569242,-0.0053689,0.00615447,0.00331468,0.00430882,0.00808511,0.0115254,-0.00264279,0.00198339,-0.00569573,-0.00434367,-0.0130038,0.000823066,-0.00911379,0.00143613,0.00379202,0.00539939,-0.00117691,-0.00610149,-0.00521449,0.0127903,0.00250984,-0.0095665,-0.00189028,-0.0112014,-0.00452148,-0.0116334,-0.00553935,-0.0161639,0.000723605,0.00763354,-0.00260876,0.00223289,0.0100226,-0.00866105,0.0119121,0.00104511,-0.0142664,0.0145332,-0.00722432,0.00325881,0.0118583,0.000836651,0.000825377,0.00107112,0.00409415,-0.0117298,0.000329336,0.0111473,0.00432208,-0.0271642,0.0194057,0.00526406,-0.00541805,-0.0101892,-0.000475427,0.000805439,-0.0183815,-0.000241708,-0.0150773,0.00269969,0.00306382,-0.0085468,0.0209316,-0.009699,-0.00598926,-0.0119096,0.0230258,-0.00832495,0.0162557,-0.00111231,0.0132993,0.0056014,-0.000730984,-3.69805e-05,0.00639852,-0.000592939,-0.00148433,0.000698711,-0.00649967,-0.0123822,0.0146278,0.00106995,-0.00491497,0.00284074,-0.0111328,0.00311839,-0.0114287,-0.0111905,0.00911878,-0.011042,0.00454312,-0.0106963,-0.0128646,-0.00349879,0.000466033,-0.0216471,-0.000482511,0.01085,-0.0127756,0.0160937,-0.0357837,-0.00265813,0.00747513,0.00230939,0.0232689,0.00235376,-0.00678748,-0.00353892,0.0136115,0.00355526,-0.0023045,-0.01076,0.00682186,0.0155315,0.000568471,-0.0200307,0.000265596,-0.0201138,-0.0157751,-0.0280986,-1.61279e-05,-0.000334912,0.00247184,-0.00594576,0.00361811,-0.00471004,-0.000839378,-0.00327551,-0.00773861,0.000785687,0.00182235,0.0137493,-0.00766062,-0.0090868,0.00157742,-0.0153143,0.000859483,-0.0152286,0.00794984,-0.00525183,-0.0112305,0.00249004,-0.00771413,-0.0061954,-0.0133805,-0.0146311,-0.000730945,-0.0114904,-0.00255742,0.00634472,-0.0129705,-0.00138211,0.00852306,0.00639451,0.0224203,-0.0158755,0.0141395,0.00200868,-0.0016276,0.00854075,-0.000336358,-0.0199864,0.012468,0.000427107,0.00524341,-0.00904728,-0.00206727,-0.00166558,0.00361124,-0.00397441,0.00172551,-0.0173826,0.00736215,0.000613808,-0.00924011,-0.00509281,-0.016913,0.00823893,0.000451662,-0.0102159,0.0045556,0.00566367,0.0152202,0.0155268,-0.0243129,0.00488953,-0.0131148,-0.000461548,-0.0112927,-0.0104588,0.00125086,-0.0166671,0.000786895,-0.00573491,-0.0117167,-0.00302249,0.00255917,0.00280563,-0.000893635,-0.00274764,0.00824426,-0.00742157,0.00325437,0.00306903,0.00325758,-0.000939081,-0.000696161,0.0010061,0.00104087,-0.00713821,0.0076001,-0.0132863,0.00279012,0.00395524,0.00474686,-0.015695,0.0125849,-0.00434584,0.00979383,0.00831903,-0.00843041,-0.0275055,-0.00281991,0.0193465,-0.00661297,-0.010773,0.0085221,0.00249327,0.00347182,-6.99917e-05,-0.000287914,0.00331107,-0.00176105,-0.00623043,0.00156217,0.0145567,-0.00670515,0.00287285,-0.0268303,0.00237794,0.0111419,0.0170646,0.0123035,0.00681981,-0.014031,0.00398193,-0.00020537,0.00450365,-0.0115123,0.0065842,-0.016945,0.00505775,0.00265601,-0.0113155,-0.00354975,0.0243816,-0.0127424,0.00921235,-0.00280589,-0.00593509,0.00424534,0.0101969,-0.00147004,-0.00418371,-0.00349576,-0.0113512,-0.00824872,-0.00620455,0.00855723,-0.01581,-0.0112572,0.00477646,0.0124521,-0.00812629,0.00178399,-0.0140266,0.00759824,-0.00389153,-3.89666e-05,-0.0043766,0.00810768,-0.00174048,-0.00269881,0.00225369,0.0111547,-0.0108686,0.00423922,-0.000671453,0.0090179,-0.00557989,-0.012453,-0.00873291,-0.0153249,-0.0137722,0.0100974,0.00245448,-0.00436828,-0.0217853,0.00231894,-0.0216246,-0.00537219,-0.00150342,0.0027128,-0.00310095,0.012851,-0.00374674,-0.0258005,-0.00626663,-0.00225444,0.000691094,0.00549698,-0.00643784,-0.0145941,0.000206625,-0.0153177,0.0039123,-0.0138767,-0.00949229,0.01641,0.0115606,0.0123916,-0.0132602,-0.00343044,-0.0165203,-0.0105578,0.00256757,0.0071645,-0.00275672,0.00680929,0.000255321,0.0118919,-0.0173212,-0.0344423,0.0200871,0.0010783,-0.00693877,0.000934641,0.00240825,0.00708267,-6.46606e-05,0.00767623,-0.0120374,0.000516401,0.0168855,0.00562976,0.0152816,-0.00688514,-0.000385539,-0.0261053,0.00610357,0.00991473,0.00436317,-0.0238124,0.0184605,0.00784332,0.00496468,0.00476267,-0.00967665,-0.000455311,0.00346775,-0.00372156,0.012081,-0.00464262,-0.00713019,-0.00832769,0.00454972,-0.00313155,0.0150517,0.00254286,0.00955595,-0.00303508,0.00256589,0.00571378,0.0195103,-0.0123988,0.0248378,-0.0117659,0.00710459,0.00486194,0.00734798,-0.00059756,-0.00377448,0.01741,0.0200397,0.000167509,-0.0113945,0.0146427,-0.0032579,0.00734416,-0.0230269,0.0125051,-0.00427298,-0.00269046,0.00535256,-0.00348179,-0.0189121,-0.0178197,-0.00123824,-0.0044034,0.0195434,-0.00902583,0.00253389,-0.015844,0.0145292,-0.00609778,-0.0155857,-0.00733259,0.00158008,-0.00962871,0.0133931,-0.00387241,-0.0149842,-0.0195954,-0.00570183,0.00675035,0.0122213,-0.0335412,-0.00174613,0.000689598,0.0238035,-0.00778766,0.0249053,-0.000260536,0.00855181,-0.0017794,0.00852291,0.00348073,0.00752897,-0.000653813,0.0193223,0.010806,-0.0122992,-0.0133245,0.0030412,0.00953715,-0.00831015,-0.00752779,0.00273163,-0.0218971,-0.00441132,-0.00111882,-0.0058354,-0.00703457,0.0108537,-0.00427749,0.00836646,0.0024776,-0.00150038,0.00910608,0.00468855,0.00808422,0.00544426,0.0028281,-0.00160697,-0.0156265,0.0198042,0.0148162,-0.0190473,0.0138437,-0.00997476,-0.0052159,0.0153084,-0.0122363,0.0198259,-0.0224794,-0.00043294,0.00983971,-0.00303389,0.00790785,-0.0209986,-0.0118654,-0.0131652,-0.00949242,-0.00434316,0.00245745,-0.00222966,-0.000518733,-0.00048485,-0.00860355,-0.00307036,-0.0214851,0.00807133,0.00824473,-0.0046958,-0.00189019,-0.00010826,0.010529,-0.010168,0.0143581,0.0102166,-0.0100364,-0.00399975,-0.0120634,-0.00710152,0.00825347,-0.00578944,0.00643145,0.00452136,-0.0250093,0.0134743,0.00327924,0.0035316,-0.00539968,-6.13793e-06,0.00288238,-0.00627831,0.0100182,-0.00807499,-0.00376313,0.00451642,-0.00529908,0.0155867,-0.00412291,0.00682225,-0.0095121,0.000154464,0.00939896,-0.00554479,0.00274322,-0.0224328,0.00246399,-0.00353322,-0.00208594,0.000831565,0.0215693,0.0020258,0.00828929,-0.00605999,0.00158833,0.00154513,0.00207799,0.00256872,0.00137835,-0.00195228,0.0101077,0.00447353,-0.00733248,0.001267,0.00454172,-0.00583038,-0.000322251,-0.007021,-0.00427933,-0.00325747,-0.000277463,0.0103287,-0.00802335,0.0111261,-0.00517419,0.00896881,0.00381483,-0.000317407,-0.0135889,0.014395,0.00016753,-0.00141342,0.00854561,0.00426031,-0.0151345,-0.00552854,0.00618029,-0.0114024,-0.00533499,-0.00823709,-0.00742659,-0.0230429,-0.00438691,-0.00981794,-0.00667791,-0.0052725,0.00143349,-0.0110941,-0.00215801,-0.00615059,0.0169184,0.00183627,-0.0083655,0.0189908,-0.00430719,0.0157046,0.00122083,0.00110226,0.00342489,-0.00431072,-0.000884629,-0.00138952,-0.00364081,0.0185021,-0.014806,0.00352178,0.00201355,0.000419665,-0.00286639,0.0064025,0.00474277,-0.00736162,-0.0024069,-0.0190952,-0.00174071,0.025638,0.0110186,0.00893996,-0.00342095,-0.0250708,0.0150337,-0.00391441,-0.00260303,0.0173406,-0.00342557,0.00774296,0.00333658,-0.012412,-0.00652052,0.0205542,0.00337213,0.0142045,-0.0113162,0.00878427,0.00782837,0.00531628,0.0161158,-0.009813,0.00403624,0.00883613,-0.00608771,-0.0132306,0.0117114,-0.014649,0.0150456,0.00301605,0.00877872,0.00312715,0.00352177,0.00713743,-0.00100619,0.00914888,-0.000154721,-0.0181167,0.0104672,-0.00244916,0.00155398,-0.00290772,-0.000224131,0.00910545,0.00551661,-0.00332049,0.00588641,-0.0085433,-0.00193436,0.0128299,-0.000329948,-0.0183592,0.00756403,0.00860073,-0.00548069,-0.00505115,-0.0124701,0.00681085,-0.00253864,-0.00238673,-0.000349326,-0.0113501,-0.0101344,-0.00456235,0.00414471,0.0110862,0.00795438,-0.00432309,0.00204483,-0.000232643,-0.000896125,-0.0112991,0.00160291,0.00172212,-0.00490639,0.00585186,0.00640053,-0.00548978,0.00608915,-0.000533094,-0.00334259,0.00374826,0.00412471,0.0236722,0.00230438,0.0104367,-0.0122028,-0.013669,0.0182633,0.00304159,0.0243105,0.0158471,0.00572368,-0.00481051,0.00956608,-0.00951927,0.0158392,0.0181139,0.00759975,-0.0085345,-0.00586135,-0.0122414,0.0029742,0.0162247,0.000407945,0.0178063,-0.00517768,0.00338726,0.0115977,0.0121853,-0.0129049,-0.00147049,-0.00227514,0.000116389,-0.00661597,-0.00881557,-0.0036669,-0.0175059,0.00591901,0.00326687,0.00541767,0.000534371,-0.0202351,-0.00752425,0.00359891,-0.0179775,0.00578872,0.00791466,-0.0097047,0.0131604,0.00516235,-0.00114607,-0.00106831,-0.000588112,-0.0209793,-0.00479151,0.0122588,0.00228871,-0.0142584,-0.00314324,0.00427058,-0.00782736,0.00204136,0.0174164,-0.0205412,0.0163629,-1.47637e-05,-0.00994234,-0.00402939,0.00475508,-0.0108815,0.00366501,-0.00817705,0.0173236,0.00594057,-0.00473526,0.00464618,0.0120373,0.0116967,-0.0167594,-0.0125721,-0.0138065,-0.00160998,-0.0086024,-0.0049737,0.0143626,0.000194355,-0.0119939,-0.00267979,0.00521955,-0.00484591,-0.00491764,-0.0126989,-0.00455813,0.00129778,0.00543357,-0.00516886,-0.00156259,-0.00208436,0.00566473,-0.00233783,-0.00107753,-0.00861218,0.00558495,-0.00964818,0.00117369,-0.000598618,0.00320648,-0.00559211,-0.0103999,-0.012654,0.00435011,-0.00231932,-0.00333741,-0.0039015,0.00045766,0.0207384,-0.00120889,0.014299,-0.00113742,-0.000501727,7.36136e-05,-0.017224,-0.0017671,0.00148126,-0.000375969,0.0121055,-0.0106883,-0.0164047,-0.0118247,-0.0110658,0.00967263,0.00769942,0.00506672,0.00959542,-0.00744644,-0.00747037,0.000576983,-0.0155932,-0.00752522,-8.75316e-05,0.00519392,-0.00469163,0.00660322,-0.00982465,0.00543113,-0.013568,0.00751,0.00383572,0.0159504,-0.00324253,-0.00461743,0.00916298,-0.0169657,0.012591,-0.00986716,0.00635484,0.00621679,0.00266804,-0.00480677,-0.00425459,-0.00219619,0.00964698,-0.00954133,-0.00389973,-0.0106238,0.000624353,-0.000432831,-0.00636086,0.0125532,0.00626422,-0.00742771,-0.0124705,-0.00411226,-0.00379756,0.0112282,-0.00878028,0.00180997,-0.0104042,-0.016764,0.00070573,-0.00519637,0.00912435,-0.00365652,-0.00625589,-0.00616872,-0.00677308,-0.00355476,0.013338,0.0158268,-0.00117729,0.0120144,-0.0013714,0.00385539,-0.0100973,-0.00261449,0.00730777,-0.0082761,-0.000816532,-0.00667372,0.00700082,-0.00949331,-0.00671404,0.0136088,0.0138524,-0.0212849,-0.00613619,0.0130249,-0.00794335,-0.0095975,-0.00878333,-0.00632157,0.00635156,0.00534148,-0.00166266,-0.00118953,-0.00475969,0.00635048,-0.0159013,-0.0141279,-0.0136262,-0.00952255,-0.0100181,-0.00794847,-0.0101557,0.00269307,-0.0128664,-0.0103511,0.00480686,-0.0122043,-0.0163491,0.000804942,0.00397223,0.0192958,-0.0098079,-0.00213454,0.00632797,0.00232091,0.0131804,-0.000491889,0.00477439,-0.0057375,0.0219904,-0.00766387,0.0113803,-0.0118466,-0.00952995,0.00271907,0.000517296,0.000499924,-0.0174102,-0.0155553,0.00273816,0.00837892,0.00756192,0.0134024,-0.00892782,0.00502819,9.26001e-05,0.0156542,0.000277699,0.00690944,-0.0028725,0.000795445,-0.00286006,-0.0220394,-0.00457188,0.00912518,0.00623882,0.0050375,0.00655773,0.0116454,0.00210524,0.0127039,0.0076079,-0.00513199,-0.00532175,0.0020988,0.00508297,-0.0152428,-0.00263602,-0.00132324,0.00224574,-0.00655434,0.00402778,-0.00209402,0.0125477,0.00273393,-0.00376464,0.000117059,-0.00915577,0.000367574,0.00692442,0.0057084,-0.00110046,-0.00379082,0.00865774,-0.0129621,0.00167087,-0.00634774,-0.00511235,-0.00326575,-0.0117103,-0.00513247,-0.00261402,-0.0148682,0.0118597,-0.00219721,0.0026975,-0.0168148,0.0167526,0.00207632,-0.00508452,0.017125,0.00439862,-0.0103141,-6.13889e-05,-0.0120179,0.00432526,0.00489607,0.00330468,0.000148506,0.00478285,-0.0159232,0.00473364,0.00110721,-0.00275781,-0.00498459,-0.00268899,-0.00935718,0.00634954,-0.00424243,-0.0194751,0.0033445,0.00425749,0.0229247,-0.015974,0.0107018,-0.00397581,-0.00976864,0.00665059,0.00857549,0.00532629,0.0181318,-0.0030334,-0.0179154,-0.00356106,-0.0045552,0.0039106,0.00679885,0.0167103,0.00902022,-0.00994509,0.00370582,0.00491125,-0.00563184,-0.00192459,-0.00203051,0.00647388,0.0113059,0.00339589,0.00167358,-0.00245115,-0.0143025,-0.0100115,-0.00323151,0.00238671,-0.0121623,0.000118675,0.0112427,0.0251858,0.00251243,0.0111795,-0.0115537,-0.0133714,-0.00336583,0.0154041,-0.0172134,-0.00176143,0.000926836,0.00327276,-0.00580256,0.00630729,0.00359691,0.02246,-0.00787255,0.00019347,0.000553722,0.00671546,0.00296063,-0.00446571,-0.00271022,0.000181217,-0.0163126,-0.00310214,-0.00493049,-0.00706443,0.00352947,-0.00869021,-0.0108507,0.00463725,0.0241407,-0.0114961,-0.000300819,-0.00902247,0.00127333,0.0082591,0.0143815,-0.00392381,0.00587745,-0.00127383,-0.00114397,-0.00364485,-0.00192072,0.00548523,-0.00704102,0.00527747,0.00349663,0.00177282,0.00401984,0.003145,-0.00765333,-0.0126305,0.0124389,0.0183896,0.0114386,-0.00244771,-0.0122744,-0.00828846,-0.0175323,0.000142834,-0.0213639,0.0242221,0.00334137,-0.00357266,0.00299084,0.0087596,0.0181778,-0.00331144,-0.0046159,-0.000147831,-0.00633241,-0.00392579,-0.000460796,0.00806556,-0.0110296,-0.0104688,0.00336121,0.0137937,0.0241707,-0.00368203,-0.00159519,0.0158603,0.0103539,-0.00930188,-0.0126299,0.00053596,0.00753711,-0.00205871,-0.00276672,0.0134062,0.00902796,-0.00359759,-0.0130227,0.00533373,0.00499838,0.0169146,-0.0081191,0.00628875,0.00609619,0.00648516,-0.0148383,0.0253383,-0.00152201,-0.00355902,-0.0133736,0.00251149,-0.0138641,0.00121579,-0.0124508,-0.00391946,-0.00410385,-0.00213532,-0.00343252,-0.004768,-0.0184131,0.00466208,-0.000847615,0.0194476,-0.00584548,0.00747316,-0.0037136,0.0130638,-0.00810727,0.00999453,-0.0159736,-0.00671897,0.00484398,-0.0125355,-0.00159057,-0.0100714,0.00703259,0.000636277,0.0040262,-0.00308194,0.0127339,0.0222694,0.00320285,0.0110104,0.00597822,0.0124099,-0.00847469,0.0167252,-0.000967076,0.00701416,-0.0102603,-0.0305249,-0.00703705,0.011223,0.00150294,0.0120147,-0.00924775,-0.0106988,-0.0200188,-0.00839602,-0.0080637,0.0157093,0.00601626,0.0123768,-0.00939751,-0.000804236,0.00420266,0.00483643,0.00182844,-0.00952007,-0.00574893,-0.00212705,0.0231857,-0.0102396,0.0122284,-0.00194293,0.0141157,0.0124271,0.00583952,0.0117103,-0.00451953,-0.0129776,-0.000288329,0.0163591,0.0180787,0.00316074,-0.0143933,0.00755576,0.00152136,-0.00585644,0.00925408,-0.00965211,0.00316907,0.00934548,0.00941234,0.00908481,-0.011628,0.0109564,0.00231838,-0.0145583,-0.0171971,0.0107467,0.0109084,-0.00278354,0.00305736,0.000323018,0.0126804,-0.0158673,0.0126324,-0.00612932,0.00736724,-0.0092992,0.00220226,-0.00550844,-0.00590598,-0.00907587,-0.00133528,-0.00212854,0.0119328,0.00112185,-0.00841491,-0.00624246,0.0103908,-0.00845342,-0.0108386,0.00537537,0.00157392,0.00472263,0.00131441,0.0129189,0.0132055,0.000207217,-0.00761577,-0.012767,0.00902937,0.0103051,-0.00464182,0.0177197,0.0111175,0.027706,-0.00852933,0.00334805,-0.00181303,0.00225732,-0.00375925,-0.00149805,0.0004616,0.0138632,0.0107257,0.00466543,-0.00576447,-0.00159227,0.00706538,0.00316561,-0.0124506,0.00577611,0.01312,0.0182983,-0.00709629,-0.00042642,-0.00735395,-0.00391997,-0.0004959,-0.0031954,-0.0054044,-0.012096,-0.00397377,-0.00249744,-0.000575048,0.000693474,0.00927321,-0.00499148,-0.0135498,-0.0150335,0.00145816,-0.00114007,0.00797534,-0.00926141,-0.0115408,-0.00045122,0.0100031,-0.00859451,0.00115489,-0.00771002,0.00176187,0.0150521,0.0207175,-0.00227912,0.00776393,0.00467628,-0.000740148,-0.00110867,-0.0153218,-0.0160364,-0.00456073,-0.0175832,0.00488872,-0.00983392,-0.00413357,-0.00392306,0.0114607,0.0174566,0.00682768,-0.00212786,0.00628746,0.00918443,0.014914,0.0023281,-0.000463662,-0.0126664,-0.00743087,0.0138236,-0.00370601,-0.00894559,0.00938336,0.00611178,0.00146413,0.000833056,0.014209,-0.00573604,0.011743,-0.0108151,-0.00145071,0.00555871,0.00924863,0.00807784,-0.0161979,0.0131094,0.00194281,0.0017855,0.00292705,0.0040146,-0.00492138,0.00697333,-0.00712694,0.0153278,-0.00927435,-0.0199396,-0.00928211,-0.0191983,-0.00350457,0.00291227,0.00106472,-0.000932369,-0.00521588,-0.00353203,0.000728167,-0.0081272,-0.00597567,0.0226426,-0.00407777,-0.00590943,-0.0109847,0.00590398,0.00794603,0.00753341,0.00373646,0.000953997,-0.0168939,0.0205877,0.0190478,0.00833423,0.00366565,-0.00650405,-0.0045012,0.0103342,-0.000921656,-0.00224271,-0.00286782,0.00375108,0.0101231,-0.01261,0.00568363,-0.00721596,0.00392113,0.00478286,0.0067571,-0.00268784,-0.00860897,0.00332542,-0.0155506,0.00382043,-0.00120427,-0.00254659,-0.00760106,-0.00203449,-0.00096142,-0.00225597,-0.00281988,0.00523894,0.000138639,-0.0078218,-0.00522179,0.00123286,0.00346762,-0.00445177,0.0133885,0.001983,0.0012286,-0.00252186,0.000109315,0.00296738,-0.000881547,0.00888326,0.0145965,-0.00535291,0.00833265,0.0171667,0.00634413,-0.00508057,-0.00124611,-0.018585,-0.00271742,0.00145433,-0.00978112,-0.0165881,0.00728412,-0.0125439,0.0159488,0.00446642,0.000314857,0.00534082,0.0122707,0.00131824,0.0171891,0.0140019,0.0157018,0.00757755,0.0037092,-0.00472718,-0.0118514,0.00107771,0.00734757,-0.0144983,0.00547795,-0.0043422,0.0135061,-0.019221,0.0199695,-0.00589513,-0.00458769,-0.000484683,0.0271314,-0.00674163,0.00236941,0.0192259,0.00713977,-0.00158147,0.00608754,0.0122973,-0.0119,0.0113294,-0.00245062,-0.010149,-0.00191649,0.0171172,-0.00270412,-0.00329719,-0.0215404,-0.0109326,0.00165686,-0.00997969,-0.00605888,-0.00016462,-0.00592736,-0.00453023,-0.00314756,-0.00802894,0.0202738,0.0178313,0.00118246,0.0116624,-0.0130065,-0.0135233,-0.00703712,0.00412876,0.00792138,-0.00828865,0.000198874,0.00199177,-0.00674631,0.00160213,-0.0100797,-0.00633328,0.00745873,0.0150557,0.00699891,0.01076,0.00120784,-0.00938628,0.00334491,0.0233149,0.00831001,-0.00599246,0.00931677,-0.00736254,-0.00343684,-0.00373324,0.00202211,-0.00292882,0.000111738,0.00287445,0.0136507,0.00295061,-3.44338e-05,0.00192894,0.000459406,-0.013112,-0.000712233,-0.00102513,-0.0194072,0.00603394,0.0129549,0.00845878,0.00231347,-0.00989401,-0.0240159,0.00886832,0.00213574,0.00181124,0.0101286,0.000380438,0.00997409,0.00644432,0.0115305,0.00872668,0.0148856,-0.000467124,0.00793868,0.0180835,-0.00872444,0.00381339,0.00128005,-0.000240689,-0.00989488,-0.00138008,0.00171504,0.00317415,0.000672844,-0.00567837,-0.00697836,0.00921765,0.00936918,0.0322669,0.00838446,0.00887257,-0.00739376,0.0089628,-0.00532458,0.00429991,0.0080967,-0.00106716,0.000946912,0.00550089,-0.00753794,-0.00465,-0.00183753,0.011371,-0.00947895,0.0137507,4.88559e-05,-0.00834788,-0.00571293,-0.00793383,0.00100859,0.0182508,0.00822655,0.00895595,-0.0247318,0.0224632,0.0183415,-0.00346581,0.0188869,0.00476805,0.0172823,-0.0129065,0.00560507,0.00848429,0.0134152,0.000835993,-0.000240612,-0.0104262,-0.0111359,0.00512345,0.00406109,0.0038875,0.000892946,-0.00997267,-0.00656898,0.0118005,-0.0226827,-0.000897737,-0.00315179,0.0110265,0.011042,-0.000347837,-0.000347007,0.0140286,0.0130125,0.0110211,-0.00034707,-0.000807364,-0.00955942,-0.0159194,-0.0107424,-0.00200404,-0.000700928,-0.0143123,0.011788,0.00341175,-0.000267414,0.0116387,-0.00752525,0.0042881,0.013241,-0.0105381,0.00384887,-0.00555982,-0.00667912,-0.0101815,0.00104832,-0.000100584,0.0149204,0.01723,0.00110295,0.012992,0.00642631,-0.0121471,0.00877418,0.00120649,0.00618317,0.00631861,-0.00472554,0.00630824,-0.0087844,0.00106096,0.00433899,-0.00756789,-0.0182381,0.00161714,0.0125058,-0.00108759,-0.00125572,0.00510077,-0.00960477,0.00062669,0.00398697,0.00776734,-0.0169208,-0.00552798,0.00138252,0.00571176,-0.000653099,0.00128917,0.0101758,0.00597824,-0.00664072,0.00434338,0.00886475,0.00680933,0.00962843,0.0162959,0.00813333,0.0229652,0.00610031,0.0100841,0.00450461,0.0017538,-0.00852655,-0.0109542,-0.00902976,0.00962648,-0.0115748,-0.0127189,0.00349814,0.00781873,-0.0181715,0.0110775,-0.0168083,0.00182992,-0.00226248,-0.00290215,-0.00449618,-0.00254242,0.0178655,0.00665302,0.00335284,-0.0120812,-0.000208911,0.00593063,-0.00879357,-0.00414745,-0.0171316,-0.0142276,0.00483835,0.00912881,-0.00971101,0.0070476,-0.000850759,-0.00208264,0.00487307,-5.58372e-05,-0.00172841,-0.00602232,-0.0104513,-0.00920834,-0.00630836,-0.00301572,0.00486791,-0.0023416,0.00488529,-0.00510729,-0.00795314,0.00305029,0.00564085,-0.00254391,-0.011718,-0.00179427,0.0154344,0.0063349,0.00555981,0.0168848,0.00618534,-0.00181106,0.00225641,-0.0156357,0.00126646,0.017874,0.00469879,-0.0041388,-0.0093462,-0.0111644,0.0103493,-0.0115152,0.00363726,0.0113786,0.00241157,0.00480788,-0.00357519,0.0104815,-0.0122071,0.0109566,-0.00259227,0.00734711,-0.00823233,-0.0167592,-0.00683061,-0.00498562,-0.00083441,0.005347,-0.000627085,0.00576197,-0.0199932,-0.0216021,0.00914278,0.0072201,0.0202512,-0.00887528,-0.00701777,0.00736204,0.00222393,0.000215291,-0.00138293,0.00171228,0.00748681,0.0080726,0.00159827,0.0278038,-0.000262195,0.00584969,0.00689516,0.000163806,-0.000142981,-0.00103952,0.0149956,0.00837931,0.00429728,-0.0173511,-0.00897422,-0.00426512,-0.00512288,-0.00925521,-0.00146199,-0.00563945,0.00561929,-0.013338,0.00340096,0.0059099,0.0043311,0.00356659,0.00919558,0.00908119,0.0137988,-0.00670675,0.00405785,-0.00315344,0.0015602,-0.00109559,-0.00350724,0.00516861,0.0112971,0.00579057,0.00683321,-0.00931436,-0.0120528,-0.0157749,0.000507598,-0.00223328,-0.00808098,0.00557181,-0.00423582,-0.0160949,-0.00158262,-0.0146742,0.00505611,-0.000358101,0.0272688,0.0135292,0.00386572,-0.000228989,0.007124,-0.00584186,-0.0166642,0.00802009,-0.00593082,-0.00173674,-0.0101697,0.0119045,-0.00261779,0.0125134,0.0100683,-0.00798429,0.0102504,-0.00500739,0.0120217,0.0163644,0.00659088,0.00322793,-0.00195049,-0.000710363,-0.00344487,0.000327442,-0.00711106,0.00324953,0.00817506,-0.00440454,-0.00873584,-0.0163057,-0.0104791,0.00214438,0.0015167,-0.00163414,0.00412336,-0.011244,-0.0136137,0.0170698,0.00467384,0.0016955,0.00744904,0.00209823,0.0143121,0.00387488,0.0100598,-0.00531884,-0.0118706,0.00779706,-0.00132736,0.00455793,0.00420241,-0.00818754,0.00369818,-0.00813697,0.00976294,-0.000657574,-0.0116856,0.0093341,0.00547219,0.0112372,0.00256122,0.00394608,0.0157985,0.00484943,0.0222611,0.0211181,-0.00600341,-0.0140038,-0.00817869,-0.00348566,0.0204441,0.00486629,0.0113094,0.00531885,-0.00365412,0.0184383,-0.00346683,-0.0076986,0.0098836,-0.00343442,-0.0145071,-0.00334167,-0.00255589,-0.00681397,-0.00673086,0.0130983,0.0183813,-0.00849365,-0.00805822,-0.00411864,-0.0135797,-0.0139819,0.00678667,-0.0106602,0.00311999,0.00266002,-0.0043388,-0.014543,-0.0145998,-0.00200087,-0.00285983,-0.0160107,0.00756106,-0.00580949,0.0165904,0.0156376,-0.00816784,0.00736264,0.0119692,-0.00445359,-0.0186181,0.00169548,-0.00235231,0.00156948,0.00109951,-0.0209059,0.0122786,-0.00896348,0.0130513,0.00554931,0.00265263,-0.0149465,-0.0123249,-0.00332592,-0.0154687,0.016682,-0.0121486,-0.0037262,-0.00337611,-0.0097609,0.00651082,0.000490828,-0.00863937,-0.00842569,0.00395933,-0.00289718,-0.0227841,-0.00843234,0.00353155,-0.000313143,0.0145477,0.00783142,-0.013515,-0.0243283,0.0058214,0.026918,-0.00296329,-0.00801357,0.0125774,0.0102864,0.0060852,0.000366278,0.00150997,0.00609798,0.0155199,0.00701905,-0.000599565,-0.00562026,0.0185005,0.00293954,0.0236527,-0.00884161,-0.017071,0.0047083,-0.00756221,0.0298559,0.00672846,0.00139126,0.00573629,0.000940751,-0.000791777,-0.00300715,0.0222424,0.0150063,0.002744,0.0115826,-0.0158191,-0.00695877,-0.00461597,0.00798016,-0.00415262,-0.00282507,0.000602819,-0.00283517,-0.00422311,-0.00906696,0.000663755,-0.00851041,-0.00886827,0.0161446,0.0153228,0.00758955,0.000646917,-0.0113497,0.00752573,-0.0145217,-0.0036077,0.00387597,0.00781361,-0.00484309,-0.0211632,0.0200316,-0.0167752,0.00373032,-0.0164499,0.0254932,-0.00953449,-0.0208214,-0.00477843,-0.0107495,0.00389862,-0.0109569,-0.015,0.00660019,0.006703,-0.0135365,0.00659818,0.00719162,0.0216302,0.000339854,0.00460643,-0.00579213,0.00184829,-0.00288365,0.00522471,0.0141339,-0.0160487,0.00619406,0.00708698,0.000917727,-0.0131378,0.005654,-0.0193525,-0.00147955,0.0182517,-0.000310464,-0.00743234,0.00190622,0.00508326,0.00950023,-0.0102679,-0.0102607,0.0181107,0.00132914,0.00359758,-0.000552773,-0.0176157,-0.00414062,-0.0106055,0.00602399,-0.00330613,0.0134066,0.00498267,0.0108421,-0.0108173,-0.000509964,0.0064243,-0.000658468,0.00470492,-0.0103511,-0.0178575,0.0239997,-0.000377255,0.0052756,0.0133518,-0.0144518,0.00380173,0.0143388,-0.00507419,0.00323987,0.0112392,-0.0123126,-0.00985103,0.000887423,-0.0172904,-0.0120458,-0.00413009,0.00655827,0.00358983,-0.00335473,0.000383807,0.00392808,0.0074607,-0.00179292,0.00440393,-0.00593439,0.00194625,0.00867128,0.00447333,0.00487484,0.0150672,-0.0144243,-0.00618382,0.00172855,0.0132455,0.00418915,-0.0136234,-0.00709425,-0.0120226,-0.012847,-0.0027656,0.0152357,-0.0061665,0.0100559,-0.00748886,0.0136196,0.000807622,0.0019128,0.00634216,-0.0246146,0.00543653,-0.00706922,0.00110975,-0.00669029,0.00510656,0.00215842,0.0104085,0.00404853,-0.00637737,-0.0113905,-0.00242605,0.000867868,0.00238587,-0.00717076,0.00691701,-0.00984906,0.00647533,-0.0213444,-0.00989817,-0.00807124,-0.0132011,-0.0131876,-0.000157867,-0.00782206,-0.0084788,0.013966,-0.00807619,0.00818039,0.0147684,-0.00457359,0.0134253,0.00605533,-0.0122428,-0.00302435,-0.0123439,0.0025298,0.013208,-0.00207834,-0.0158776,-0.0132227,-0.014342,-0.00135091,-0.0163957,0.00188024,0.00998301,0.0162083,-0.00641957,0.00706453,0.0181457,0.013963,-0.0139033,-0.00678451,0.00469397,0.00863277,-0.000535808,0.0120453,-0.0267562,0.0191908,0.00400368,0.0119064,-0.0118925,-0.00755705,-0.00954282,-0.0129749,-0.0127251,-0.0078285,-0.0118823,0.0186473,0.00281172,-0.00187221,0.00888577,0.00464452,0.00497647,-0.00711455,-0.00631674,0.015712,-0.000441831,-0.0138154,-0.00689116,0.00370391,0.00423684,-0.00412587,-0.0188578,-0.00293242,0.0032204,0.00344001,0.00201027,0.00236526,-0.009322,0.0114754,-0.0262824,0.00764668,-0.00676983,-0.00119309,-0.0244446,-0.0137659,0.00138227,-0.0169207,0.0033779,-0.00951726,-0.00419835,0.00502977,0.00760343,0.00665688,-0.0144174,0.00679311,0.000224657,-0.0040477,-0.000696187,-0.0111474,0.00505571,-0.0048993,-0.0087081,-0.0209808,-0.0110927,0.0021103,-0.00242947,-0.00704587,0.00276271,0.0133691,-0.00668933,-0.00718879,-0.0125629,0.00516998,0.00138384,-0.00139063,0.00670322,0.00253394,-0.00761613,-0.00397157,0.00764994,0.0155291,0.00273566,0.00794975,0.0036405,-0.00199144,-0.0254792,-0.00596087,4.7705e-05,-0.00169538,-0.00206351,0.00333229,-0.00695267,-0.00103733,0.00617162,-0.0152621,-0.00684012,-0.00192449,-0.00667723,0.00961181,0.00673291,-0.00701289,0.000212687,-0.00938763,-0.0110887,0.00863968,0.00724883,-0.00843501,-0.00809556,-0.00167678,-0.00177432,0.018436,-0.0227541,0.00429464,0.0140647,-0.00195986,0.00124735,-0.000106305,0.0123881,0.00708492,0.0125284,0.00993344,0.00250182,-0.00117349,-0.00244611,0.00521981,0.00947058,-0.00259071,0.00130343,0.0025178,-0.0074882,-0.0243138,0.00818331,-0.00763503,0.0124308,0.00810349,0.0143221,0.00341711,-0.00601037,-0.00658386,0.0124315,-0.00222965,-0.00608952,-0.00388021,-0.00455373,-0.000634505,-0.0226951,-0.0105322,-0.00153563,0.00335701,0.00554264,0.00777582,-0.00772402,-0.00234221,0.00549732,-0.00186941,-0.00430762,-0.00157122,-0.0070978,0.00353092,0.00590122,0.00530243,0.000730205,-0.00663217,-0.000869528,0.0100218,0.0022329,-0.00412107,-0.00958923,-0.00160856,-0.017661,0.00850721,-0.0071662,0.0178941,0.00954105,-0.000197415,-0.00675345,-0.0101003,0.00333206,0.00796674,-0.00458245,0.0120529,0.00611078,-0.000830583,0.0078221,0.0292495,-0.00473391,-0.00223332,0.0049527,0.0161468,0.00182971,0.00443208,0.00113403,0.00229788,-0.00913496,0.0120215,0.0244042,-0.0196456,0.0207706,0.00870203,0.00907914,0.000115779,-0.00789467,-0.00813139,0.00496363,-0.00836817,0.0162883,-0.00459736,0.011551,-0.00133332,0.012175,-0.0181899,0.000577743,0.00403938,-0.00456705,-0.0115748,-0.0168377,0.00299154,-0.00835283,-0.0155162,-0.00154324,-0.00968895,0.0116555,0.00492629,0.0140854,-0.00721073,0.00849003,-0.0124783,-0.0215174,-0.0108397,-0.00932855,-0.00293736,-0.00211685,-0.00812387,0.0096283,0.00397336,-0.0125699,0.000718301,0.013215,-0.00553314,-0.0101473,-0.0112569,0.00250108,-0.000561495,-0.00445797,-0.0114965,-0.0120116,-0.00186465,-0.014968,-0.0086769,0.000603703,-0.00121652,0.000334865,0.00791202,-0.00359398,0.00153039,0.00712365,0.00968005,0.00455513,0.0125034,0.00227271,-0.00263747,-0.0173753,-0.00111069,-0.00125058,0.000598285,-0.000841364,-0.0191472,-0.00417361,0.00082233,0.00424932,-0.000464393,-0.00690001,-0.00103427,-0.00494384,-0.00103791,0.00428442,-0.00719684,-0.0150796,0.000854767,0.00131418,-0.010652,0.000851728,0.0103396,-0.000673633,-0.00658179,-0.0101612,0.00037474,0.00723492,0.00645359,0.00764612,0.0170327,0.0145054,-0.00610633,-0.00327026,0.0192795,-0.0144324,0.0122722,0.0043649,-0.000929627,0.0146756,0.00213745,0.00460959,-0.00391954,-0.00817905,0.000508987,-0.0128543,-0.00466622,-0.0311975,-0.0215878,-0.00197906,0.00374315,0.0151373,0.0244257,0.00702255,-0.00103861,-0.00349329,-0.00639038,0.00665579,0.00769827,-0.00274764,0.00197033,-0.0132916,0.00902713,-0.00838119,-0.00924695,0.00162412,0.00113749,-0.00212747,-0.00786496,0.00408634,-0.00508356,-0.0137263,-0.00119589,0.0096796,-0.00978577,-0.00183058,0.00818323,-0.0087026,-0.00228582,-0.00571681,0.0152749,-0.00420445,0.0114442,-0.0108851,-0.00741437,0.00480048,-0.00379235,0.00919051,-0.0100242,0.00664751,0.0108274,-0.00796224,0.00958339,0.0221765,0.00161283,0.00522433,-0.00278101,-0.024935,-0.024238,-0.00850866,0.0182507,0.0119795,-0.00790713,0.0240843,-0.0080484,-0.00994704,0.00314453,-0.0023196,0.00563538,-0.00100313,-0.000483065,0.00346161,0.00503121,-0.0172244,-0.0122156,0.0144332,-0.0155184,-0.00405878,-0.0129409,0.000142849,-0.00800485,0.0074066,0.00374694,-0.00677293,0.00426704,-0.00162519,0.0115693,-0.00234729,-0.0139355,0.00754649,-0.0134143,-2.83311e-05,-0.000748064,-2.6894e-05,0.00322259,-0.00064289,-0.0117779,0.000423628,-0.0155683,0.00789426,-0.00759178,-0.00475141,0.00518211,-0.00418605,-0.00434999,-0.0101587,-0.00156671,-0.012619,0.0086603,-0.00669888,-0.00434115,-0.0119573,0.0127791,-0.0150339,-0.00615491,-0.00698412,0.00363354,0.0023518,-0.0057612,-0.00166135,0.00967084,0.00843413,0.0165953,0.00438369,-0.0271866,0.009562,-0.0134878,-0.000492599,-0.00650693,0.00259231,0.0105991,0.0102285,0.010044,-0.00437958,-0.000117239,0.0102321,0.0111239,0.0101855,0.000253565,0.00665803,7.77629e-05,0.00708402,0.0122487,-0.00417455,0.00372741,0.0160487,-0.00519374,-0.0111349,0.000262874,0.031708,0.00525579,-0.00909216,-0.000910002,0.00064586,-0.00175965,-0.000892604,0.0195572,-0.01052,0.00196516,0.0230712,0.00951977,0.000755778,-0.0037181,0.0134989,0.00549399,-0.0020873,-0.017821,0.00703406,0.00328562,0.0123404,-0.00196166,0.00264674,-0.00500565,-0.00557091,-0.00626338,-0.00205202,0.00787285,0.000543793,0.00925098,0.00764278,0.0135594,-0.000208998,0.0130579,0.00861666,0.0151664,0.00509852,-0.00327148,-0.0148522,-0.018626,-0.0107084,0.00390832,-0.00430314,0.011546,0.0316341,0.00343408,-0.0122218,-0.0102063,0.000596125,0.00812966,0.0013014,0.000777104,0.00674191,-0.0084895,-0.00166778,-0.0101267,-0.00843584,0.00666692,-0.00602678,-0.0074013,-0.00213355,-0.00438919,0.0129265,-0.0120356,0.0163807,0.010255,0.0145824,0.0157111,0.00520366,-0.0258961,-0.0108835,-0.0187435,0.00613178,-0.00820809,-0.00413327,0.00653728,-0.00153578,0.0126332,0.00629053,-9.53287e-05,-0.00544663,-0.0256203,0.0127198,0.0265317,0.00453327,0.0144246,-0.00870824,-0.00499343,0.00901555,0.00513364,0.00323783,-0.00931023,-0.0204046,0.0170965,-0.000605095,0.00303579,-0.00950922,0.00849007,0.0113213,0.0129226,-0.00142606,-0.00340214,-0.00132413,-0.008593,0.00333865,-0.0100282,0.00951814,-0.00490841,-0.00866235,-0.0035102,-0.0117169,0.002807,-0.00756762,0.00519086,-0.0150043,0.00638117,-0.00412095,-0.011589,0.000176924,0.0119582,0.00142021,-0.000804272,-0.0143984,0.00446873,-0.0052904,-0.0147537,-0.00566807,0.00831069,0.000144282,0.00742611,0.00522351,-0.0108029,-0.0148496,0.0104946,-0.00692897,0.0103357,0.00189891,-0.00181461,-0.00086478,-0.00801636,0.0136984,-0.00608298,0.011696,0.00730518,0.00425973,-0.00779447,0.0143501,0.00874487,-0.00912271,-0.003205,0.000980174,0.0118875,-0.00489066,0.00687981,-0.00298947,0.00979091,0.00951716,-0.00794333,-0.0104902,-0.0163687,0.000768118,-0.00782779,-0.000256552,-0.00310273,-0.00602599,0.0177192,-0.022627,-0.00512782,0.00722943,0.0147168,-0.020788,0.00497895,0.000909586,0.00935035,0.0124911,-0.00185048,0.00263379,0.00992711,0.00210314,0.00106952,0.00854486,-0.00430231,-0.000616182,0.00380457,-0.00576709,-0.00463354,-0.000754763,-0.00350487,0.000212689,-0.00403317,-0.00839143,-0.00201395,0.00147185,0.00729893,-0.00235098,0.0189798,0.00853453,-0.00035172,-0.00637855,0.0214507,0.00393324,0.00811884,-0.0110241,0.00972377,0.00345656,-0.00943366,0.0192797,-0.000407936,-0.000177112,-0.00475048,0.00862872,-0.0069211,-0.00304835,-0.00175494,0.00651492,-0.00455518,-0.00710021,-0.0104329,-0.0066465,-0.0106801,0.0147948,-0.00474768,-0.00270422,0.00825371,0.00160982,-0.00356377,-0.0162941,-0.00574179,0.0281956,0.00707093,0.00881548,-0.0139031,0.00965821,-0.00871047,-0.00321692,-0.00598426,0.00579484,-0.00596461,-0.00573744,0.00130433,-0.00550679,-0.00344868,0.0147538,-0.00478424,-0.0123897,-0.0150073,0.00203642,-0.0161833,0.0168192,0.00560586,0.00251517,-0.00229072,0.0126834,-0.00354851,0.00429496,-0.00398702,-0.00379777,-0.0141044,-0.00721942,-0.0021674,0.0040381,0.00942344,0.0226738,-6.48555e-05,0.0160795,-0.00231383,0.0131274,-0.00112994,0.0023623,0.0126769,0.00664286,-0.00450725,0.000250656,-0.000246604,0.0135263,-0.00586708,-0.0218158,-0.00926556,0.00596152,-0.00977281,0.016058,-0.00986921,-0.00124812,0.00866903,0.0164886,-0.0111254,-0.0109311,0.0185167,0.00930995,0.0146067,-0.000229298,-0.00665556,0.015305,0.00952758,0.012198,0.00215602,-0.00104629,-0.0177787,-0.00111661,0.0122841,-0.0104553,-0.0102288,-0.00821467,0.00747518,-0.0269556,-0.00128856,-0.014233,-0.0126084,0.0177917,0.00569748,0.00804844,0.00758043,0.00252141,0.00904268,-0.00811989,-0.00710617,0.0106963,-0.00287326,-0.00234858,0.0114343,-0.013069,0.0131156,-0.00122599,-0.000983155,-0.00121646,-0.00177842,0.00411693,-0.00730606,-0.0113642,-0.00402466,0.00204305,0.0107483,-6.86277e-05,-0.0124284,-0.00884968,-0.0137403,0.000828368,0.000574921,-0.00858795,0.00769317,-0.00162527,-0.00225569,-0.00905363,0.00812264,-0.00113964,-0.0123579,-0.00628155,0.00855611,0.0113881,-0.00494502,-0.000576484,-0.000766286,0.00380786,0.00399649,-0.00442323,-0.00598235,0.00688322,-0.00236637,0.016692,-0.011001,-0.0140952,0.000381588,-4.89366e-05,0.00340365,-0.00396676,-0.0119624,-0.00654822,0.0188441,-0.0202699,0.0107132,-0.0116858,0.0170744,-0.00600962,-0.0124255,-0.00167603,-0.0145373,0.0138297,0.00123691,0.0108028,-0.00591232,-0.00341061,-0.00751511,-0.00535455,0.00234328,-0.0145456,0.00168432,-0.001626,-0.00526507,-0.0117842,0.00907544,-0.00133563,-0.0129299,-0.00226708,-0.000288171,0.00596581,0.00134679,-0.00299703,0.00295497,-0.00873748,0.000670522,0.00287431,0.0140372,0.00738647,0.00110701,0.000324907,0.00591373,0.00709898,0.00243033,-0.0116691,0.00551273,0.00501776,0.0218404,-0.00210284,0.00414245,0.0078601,0.00735077,-0.0101154,0.00529984,0.0119715,0.00134479,-0.00703453,0.00507812,0.0198304,0.0264633,-0.0115046,-0.00282709,-0.00685806,-0.00236961,-0.011741,-0.0242607,-0.0103728,-0.00555381,-0.00545418,0.00715794,0.016281,-0.00508267,-0.00050495,0.00715867,0.015775,0.00414079,-0.0132022,0.00882626,-0.00769268,-0.013972,0.00770468,-0.00569133,0.00805361,0.00264226,0.0177475,0.0184752,0.00943381,0.00574395,-0.00708368,0.000500143,-0.0115473,0.00253939,-0.00579843,-0.00290894,0.00136186,-0.00124602,0.00861437,0.0034761,0.013287,-0.02065,-0.000168836,0.0260599,-0.00404577,0.00120447,0.0110798,-0.00141361,0.0087543,-0.0254147,0.00675515,-0.0137896,0.000300356,-0.0135353,-0.00231471,0.0134833,-0.00472831,-0.00744343,-0.00353593,-0.0110088,-0.00940226,-0.00430232,0.0098155,-0.00105053,0.0222159,0.00313933,-0.00601148,-0.00654514,0.00147894,0.0216391,0.00145597,0.0116186,-0.0278201,0.00772055,-0.00340516,0.0112222,0.00290317,0.0112654,-0.0136872,0.0122295,0.00338669,0.00597399,-0.00316935,0.00493502,0.00509596,0.0187879,0.0074694,0.00956433,-0.00483496,-0.012591,-0.0160138,-0.00698176,-0.0158913,0.005507,-0.0153877,0.00362607,-0.000229291,-0.0030171,-0.0160426,-0.00628687,-0.00773983,-0.01422,0.00504789,0.00871349,-0.00368388,0.00426693,0.0145488,0.0136345,-0.0136605,0.0130242,-0.00215857,-0.00981119,0.00990214,0.00482875,-0.00295399,0.0180248,0.0123226,-0.0101243,-0.00451192,-0.00622849,0.00281291,0.00250227,-0.00716311,0.000926058,0.00142888,0.0211751,0.0165476,-0.00300303,0.00106775,0.000641672,0.00469374,-0.00040184,0.000391633,0.00711447,-0.00180798,0.00644119,0.0116196,0.00504467,-0.00240568,0.000349674,0.00959013,0.0144377,0.00131867,0.00744124,-0.00564437,0.000890601,-0.00186008,-0.0058984,-0.0109356,-0.0147939,-0.0122697,-0.0165656,0.0106789,0.0098553,0.0104474,-0.0062244,0.00124165,0.00819732,-0.00100208,-0.0157309,-0.00488403,-0.0177068,0.0151546,0.000814141,-0.0281044,0.0056885,0.0261829,-0.01039,0.0125306,0.0115498,-0.00850949,-0.0153528,0.0177893,-0.00907966,-0.00365327,-0.00754802,0.00746379,-0.00208612,-0.00253306,0.00313822,-0.0199553,-0.00266789,0.000375595,0.0103333,-0.0150903,-0.00875041,0.0157924,0.0013308,0.0145797,-0.000195095,-0.00147741,-0.0127614,-0.00663908,-0.00441876,-0.00666466,0.0170252,-0.0102293,-0.00681631,-0.0106247,0.0137666,0.000630437,0.0075798,-0.00675856,0.00598197,-0.00180042,-0.00598152,0.00671205,-0.00422092,-0.0123997,-0.00229968,0.0132381,-0.00854282,-0.000749702,0.0123472,0.019208,-0.00681274,-0.00710925,-0.00285721,0.0123825,0.00172584,-0.0301296,0.00361782,0.00739277,-0.0060803,-0.0108358,-0.00959661,-0.00983357,-0.0273346,-0.00295887,-0.00107819,0.0117107,0.00258532,-6.19532e-05,0.00199161,-0.00939364,0.0130761,-0.0108676,-0.00625881,0.00114462,0.0132338,-0.0150537,-0.0131365,-0.0065813,0.0129074,-0.00839475,0.00742954,-0.00585349,0.00772205,0.00114738,0.0119285,0.00208768,-0.0115843,0.00975154,0.00691246,0.00777206,-0.00444278,-0.0032639,-0.00631965,-0.0045731,-0.0116232,0.00124184,-0.0132003,-0.0120995,0.0118525,-0.00963415,0.00674671,-0.00387454,-0.00488162,-0.00197153,0.00112217,0.000980807,-0.00396515,-0.00638368,-0.00158849,0.00195139,0.0100496,-0.00145397,-0.00852283,-0.00407745,-0.00757213,-0.0105407,-0.0160903,-0.010279,0.00478193,-0.0143549,0.00514071,-0.00358025,-0.00017918,-0.0165322,-0.00160049,0.00221156,0.00290141,-0.0034876,-0.0112146,0.00731125,0.0147657,-0.0151651,0.00940313,-0.00299844,-0.0061678,0.00412106,-0.00171466,0.00760202,0.00326298,0.000768715,0.00503957,-0.0186139,0.00274864,-0.0125971,0.00880017,0.00188851,-0.0111436,0.00156877,-0.00266959,0.00183028,0.00123249,0.00765694,-0.00995728,-0.0124051,0.00191121,-0.000893582,0.00463217,0.00448839,-0.0165022,0.00312821,0.00722867,-0.0143337,-0.0047319,-0.000724283,0.000211909,-0.0119937,0.00701523,-0.0116661,4.75845e-05,0.00952825,0.0174345,-0.00472907,0.0116008,-0.0030646,0.0177314,0.00175213,0.00255766,-0.00284366,-0.00678576,-0.00754064,-0.0153999,0.0146193,0.00857503,0.0092655,-0.00573143,-0.0133117,0.023734,0.0228542,-0.0151749,-0.0110915,-0.00952317,-0.011091,0.00990415,-0.000551939,0.0369777,-0.00562248,-0.0127572,8.31051e-05,0.00108174,0.00465057,0.00619402,0.0139178,0.000619204,0.0101551,-0.0100352,-0.00784141,-0.0108822,0.00203872,-0.00639343,-0.00119392,-0.00520895,-0.0128412,0.00392697,0.00516516,0.0116868,-0.00436777,0.00272041,0.00352483,-0.00832081,-0.00872605,-0.000188096,-0.00895326,0.000548135,0.0158468,-0.00632052,-0.00874943,-0.00630143,-0.0036847,0.0173678,-0.0178679,0.02172,0.00328756,-0.00624049,0.00498413,0.0163063,0.00542907,-0.00445533,-0.0152114,0.00830148,0.00872875,0.0181039,0.006745,-0.0060777,-0.00393489,0.0013301,0.00133677,0.0112777,-0.00417015,0.00511008,0.0170034,0.000649237,-0.00306033,-0.00036268,-0.0239271,-0.00405388,-0.000804521,0.00460492,0.017308,-0.00868106,0.00868038,-0.00630711,-0.00202769,-0.00487247,0.0175506,-0.0127373,-0.00853141,-0.0143373,0.00179437,-0.0105633,-0.0102077,0.00280984,0.0161151,0.0136379,-0.00685976,0.000323872,-0.0170627,-0.00934918,0.0072952,-0.0191804,-0.00900054,0.000372536,0.00305486,-0.00382707,-0.00266242,0.00508119,0.016179,-0.0162756,0.000312485,0.00693267,-0.00178875,0.0143737,0.0163685,-0.00111815,0.0114803,0.000848742,-0.00633865,-0.000788213,-0.0189754,0.00278744,0.00345035,0.0127588,0.00120629,-0.0107589,-0.00213881,-0.00591036,0.00130458,0.00959728,0.00841906,-0.023005,0.0058387,-0.00292424,0.00545246,0.00875322,-0.00626159,0.0203854,0.00521327,-0.00763376,0.00435351,-0.014458,-0.0160599,-0.0203004,0.00203974,-0.0146961,0.00411057,0.0077524,0.00214661,-0.00136753,-0.00576136,-0.0146007,-0.012746,-0.0247879,-0.00846737,-0.00627903,-0.00184872,0.00336798,0.0191584,-0.00431671,-0.00183676,0.0125877,0.00867434,-0.0165626,-0.000373007,-0.000929503,-0.010574,0.00239336,-0.00376098,0.00287658,0.00100871,-0.00043826,-0.00761983,0.0149852,0.00420779,-0.00750689,-0.00185437,-0.00378549,0.0011624,-0.00615358,-0.00843977,-0.00269533,-0.00234935,0.00388358,0.0118439,0.00354926,-0.00401661,-0.000848988,0.0117289,-0.00678013,-0.00754256,-0.0140233,0.0129487,-0.0200413,0.00264085,0.0170142,-0.00207063,0.00365475,0.0144549,0.0186419,0.0159264,-0.00901481,-0.00685853,0.00204477,0.0065649,0.00370051,-0.0250978,0.00707227,-0.0053503,0.0113163,-0.00201639,-0.000519418,0.00322398,-0.00880018,0.00158621,-0.0105258,0.00840375,-0.00744823,0.00221843,0.000635561,-0.0117571,0.0172173,0.00298076,0.0207555,-0.00628251,0.00686238,-0.0143474,-0.00277453,0.00136363,-0.00637959,-0.00735388,0.00714299,-0.00508955,-0.0113507,-0.0121801,0.0160376,0.000962075,0.00514203,0.00388834,-0.000242855,-0.00368293,-0.0135904,-0.0054893,0.00779631,-0.000952467,0.00954792,-0.0217283,-0.00148303,-0.000608513,-0.0154512,0.00726372,-0.00339396,0.00387306,-0.0171136,-0.00484044,-0.00203527,-0.00626334,-0.00322405,0.00200472,0.00301139,-0.0117207,-0.0199385,-0.00969565,-0.00347015,0.00207768,-0.00480508,0.0015134,-0.0142591,-0.00526652,-0.0016148,-0.00146835,-0.00206965,0.00453664,0.000895678,0.00696549,0.0169075,-0.0173061,-0.0148045,-0.021937,0.0279044,-0.00127529,-0.00619484,0.00885538,0.0103425,-0.00349337,0.00246552,0.00831447,-0.00188074,-0.00546794,0.0119423,-0.00822274,-0.00255543,-0.00489043,0.00565474,-0.00941114,-0.000802349,0.00556059,-0.0107129,0.00725901,-0.000650061,0.0105496,-0.00176696,0.00916314,0.00367836,-0.0143158,0.00314404,-0.00284348,0.00722797,-0.00582934,0.00950918,0.00424571,0.00917841,0.00538633,-0.0187702,0.0241589,-0.00717657,-0.00551313,0.0222884,0.00613934,-0.00572102,0.0074283,-0.0168627,0.00822578,0.0052345,-0.0126027,0.000793144,0.0208276,-0.00716606,0.0160195,-0.000448642,-0.00378637,-0.00256601,-0.0145792,-0.00300471,-0.00201024,-0.0146052,-0.0159467,-0.00868759,-0.0168577,-0.00916213,-0.0227407,0.013686,0.0105223,-0.00970745,-0.00182196,-0.00452297,0.0114494,-0.00388279,-0.0180914,0.0103206,0.00518202,0.00539167,0.0127792,0.00602535,0.0113335,0.00534202,0.00526958,-0.0201114,0.0137929,-0.0068605,0.033215,0.0162478,-0.00991368,-0.00212773,-0.00274631,-0.00112293,-0.00291579,0.02835,0.0081453,-0.00512724,0.00540253,0.00394721,-0.000715964,0.00973141,0.00574554,0.0164451,0.00582119,0.00409008,-0.00460769,0.00516077,-0.00726506,-0.00636734,0.0093381,-0.00628334,-0.00348883,0.00287752,0.00949302,0.000388068,0.00356239,0.00227812,-0.00141148,-0.0185464,-0.0255389,0.0102438,0.0108014,0.0150087,0.00631735,-0.0148897,0.00501796,-0.00382872,-0.00492506,-0.00708377,0.0150967,0.0201325,0.00468921,-0.00455832,0.00108766,0.014565,0.00184191,-0.0111937,-0.0300584,0.00794382,-0.0105919,0.00424184,0.00912638,-0.000797843,-0.00954517,-0.0103356,-0.00433869,-0.00359367,0.0107639,0.00794011,-0.00852383,0.0350755,-0.00684529,0.00322252,-0.0112836,-0.00371559,-0.00640033,-0.00587797,-0.000779878,0.00087205,-0.0004004,0.0114021,-0.00446017,-0.00624923,0.0149612,0.0108816,-0.0135953,-0.00217119,0.00484999,-0.00540664,0.00655352,-0.00324295,0.000399051,0.0135847,-0.0146271,0.0238816,0.00682193,-0.00137382,0.00178186,-0.00792116,-0.00208475,-0.00175027,-0.0105076,-0.0111924,0.0100164,-0.0151945,-0.0124105,-0.00395322,-0.013957,-0.00754416,-0.00684877,0.0111071,0.00247365,-0.00864309,-0.00973091,-0.008807,0.00466516,0.00873417,0.0155291,-0.00930945,0.00412408,0.017128,-0.0080178,-0.00412654,-0.00433454,0.0130919,0.0114766,-0.0189564,0.0145735,0.0149461,-0.00339123,-0.00459519,0.00597446,-0.000868885,0.015466,0.00299778,-0.01103,0.00512775,0.00788701,-0.0182863,-0.000219705,5.08928e-05,-0.0104912,0.00267985,-0.0125491,-0.00874564,0.0117933,-0.00703815,-0.00641279,-0.0047718,0.00700467,-0.0100321,0.00930596,0.00566942,-0.00827126,0.000717889,-0.00984951,-0.00343782,0.0167684,-0.00342214,-0.0084808,0.0129847,-0.00365445,0.00901822,-0.0096979,0.00242702,0.0148257,-0.00137676,0.0209389,-0.00823851,0.00158068,-0.00525974,0.004632,-0.00361096,0.00953276,0.00648574,0.00725692,-1.66674e-05,-0.00987419,0.00649923,-0.00694741,0.00266453,-0.0119952,-0.00986277,0.00835311,-0.00507024,-0.00372872,-0.00252809,-0.00688346,-0.0121551,-0.0135,0.00646226,0.000130862,0.00219944,0.0141479,-0.010232,-0.00739445,-0.00246535,0.00468351,-0.00513571,0.00124795,0.0068809,0.00287871,0.00789722,-0.00251288,0.0126402,0.00630481,0.00940265,0.00192286,-0.0113816,0.00509576,0.00314211,-0.0108553,-0.0219925,-0.00269552,0.00209084,0.0105039,0.0172276,0.000129244,-0.0097637,-0.00165326,-0.00581361,0.00405383,-0.0140455,0.00608182,-0.018102,-0.0155101,0.00775825,0.00694486,0.00734045,-0.0238208,0.0100278,0.00542465,0.000982687,-0.0149628,0.00805917,-0.00683218,-0.0172064,0.00331582,-0.0082415,-0.0176793,0.00871263,0.0064481,0.00374708,-0.010598,-0.00176685,-0.000860951,0.00200085,-0.00423095,0.0101883,0.00484253,0.00312396,-0.020394,-0.0144828,0.00813931,-0.0183916,0.0128546,-0.000829757,-0.00615642,-0.0101605,0.0157088,-0.01854,-0.00993425,0.00122012,-0.00613126,-0.00114941,-0.0111806,0.00277899,0.00873619,-0.00988985,0.00150796,0.00801311,-0.0128827,0.00317043,0.0115567,0.0216977,0.0196234,-0.00926412,0.00237761,-0.00520673,0.00729533,0.0152003,-0.00775624,-0.00726292,0.00849223,-0.00779641,0.00019308,0.000715353,0.00178298,-0.00694037,0.00303047,-0.0138189,-0.0168361,0.000563154,0.00329722,0.00357481,-0.00691233,0.0118565,-0.0120214,0.00129775,0.00751627,0.00163473,0.011248,0.0190233,0.00379937,-0.0118209,0.00467771,-0.00128789,0.00174639,-0.00935603,-0.0118926,0.00103749,-0.0114139,-0.00204387,0.0131861,-0.00564797,0.00428948,-0.00198409,-0.00577532,-0.00624603,0.00561485,-0.0162445,0.00732823,-0.0104218,0.000817858,0.0038762,-0.012822,0.00140113,-0.0110779,-7.91785e-05,-0.0135604,-0.0105255,-0.0081999,0.0141401,-0.00117068,0.00542001,0.0209868,0.00226625,0.0108374,-0.00887777,-0.00466706,-0.000634217,0.00242882,0.00295457,0.00207038,0.00741611,0.00931757,0.000121238,-0.000627646,-0.0164846,0.0136783,0.00790493,-0.0114652,0.00479083,-0.0145697,-0.00660927,0.00480262,0.0028837,0.00630697,0.0139766,0.001476,0.00352145,0.00121276,-0.00932424,0.0100813,-0.00540197,0.000404579,0.0062242,0.00298963,0.00649667,0.0140788,-0.00987305,-0.0109228,-0.00773289,0.00410869,-0.0162989,-0.0207178,0.00656884,-0.00337729,-0.00950336,0.000495537,-0.00730639,0.00227191,-0.00503464,0.00490074,-0.00318408,-0.0100126,0.00543329,0.00946741,-0.0161338,-0.0158417,-0.00113671,-0.005457,0.00229968,0.0156825,-0.0123378,0.013195,-0.00762084,-0.00824811,0.00872098,0.00785229,-0.0166918,-0.00578486,0.00484256,0.0171306,0.0189358,-0.0077863,0.00369549,0.00451569,0.0274521,0.00800041,0.00257417,-0.0106872,-0.0130047,-0.00527847,0.014092,0.000463754,0.0121118,0.00160071,-0.00155734,0.00133478,0.00241285,0.00998111,-0.00316014,0.0020064,-0.0165152,-0.00749352,-0.00738698,0.00405945,0.00759201,0.00177614,0.00714963,0.00259613,-0.0211576,0.00579668,-0.000818612,0.00813804,0.00989869,0.011315,0.00768798,-0.00695232,-0.00505063,0.0140428,2.68228e-05,-0.0010489,0.00738618,0.00573002,0.00765734,-0.013858,-0.00171185,0.0122388,-0.00150552,-0.00334842,-0.00539238,0.00145738,0.0046503,0.0107343,0.00255821,-0.0236638,0.00660344,0.00785251,0.0112511,0.0154649,-0.0131713,0.0066882,0.00233189,-0.00169268,0.00138998,0.000239231,0.0135775,-0.00945461,0.00408099,0.00148344,-0.00706451,-0.00961309,0.00482732,0.00342689,0.00832803,0.00142864,-0.00506692,-0.00116731,-0.000535919,-0.00884933,0.0108861,0.00953232,-0.0189941,0.0204047,0.0056539,0.000333921,0.00153585,0.0129862,-0.0288224,-0.0145413,0.00422702,0.0180208,0.00192495,-0.012699,0.0121902,-0.00957565,-0.00563793,-0.00557734,0.00976959,-0.0057171,-0.000764201,0.00939135,-0.00270647,0.0108354,-0.0068045,-0.020142,-0.00718904,0.00478807,-0.0114245,-0.0136537,-0.0157911,-0.00640036,0.0139559,-0.00720382,-0.00541763,0.00749917,0.021001,-0.00292785,0.00377743,-0.0108597,0.00051499,-0.00536295,0.00865176,-0.0085981,-0.00427094,-0.00298893,-0.0137887,0.00168319,-0.0201229,0.00750015,-0.00176787,-0.000571977,0.00615811,0.000160484,0.00572124,-0.000655576,-0.0146425,-0.00518963,-0.0206694,0.0151233,-0.000954021,0.00711035,-0.0169044,-0.00374815,0.0180289,-0.021344,0.00791193,-0.00140354,-0.0102874,0.000842406,0.00546423,-0.0109628,-0.00845353,-0.00695457,-0.00495749,-0.00340742,0.000177954,0.0191511,0.00555477,0.00601813,-0.00433753,-0.021496,0.00751402,0.00132324,0.00101166,0.000691675,-0.00531785,0.0110084,0.00369595,0.000639341,0.00742065,0.0126175,-0.00785549,0.0109698,-0.00206979,0.00465526,-0.0105941,-0.00755138,9.52097e-05,0.00887547,-0.00617155,-0.00799923,-0.0112967,0.0027464,0.000615835,-0.00697135,-0.00183151,0.00815733,0.00215402,-0.00526392,-0.0154713,-0.0124658,0.00758553,-0.0133349,-0.00807642,0.00204535,0.00801306,-0.00990024,-0.0100582,-0.0110159,0.0131478,-0.00188766,-0.0166518,0.00141195,0.00368233,-0.00355907,0.0104564,-0.00213193,0.0070422,-0.0196304,0.00631541,-0.00723681,0.00497444,0.0114662,0.00690042,0.0134562,0.0138171,0.016929,0.0080497,-0.0010189,-0.000798352,0.00504263,0.00172604,-0.0136296,0.00178668,-0.0108,-0.0169664,-0.0114774,-0.00414405,-0.00477248,0.00724098,-0.0114187,-0.00161222,0.0136561,-0.00474936,-0.00970569,-0.00811894,-0.00796965,-0.0216989,0.0144044,0.001926,0.0125172,-0.00926085,0.0002191,0.0164946,-0.0254844,0.0061755,0.0137068,-0.0222165,-0.00478932,-0.0121653,0.00540237,0.0110397,0.0180445,0.0195886,-0.00753514,0.00372067,-0.00401274,0.0214001,0.0115609,0.00310915,-0.0116666,-0.00662459,0.007466,0.0155379,-0.0293298,-0.00304653,-0.0133108,-0.00584491,-0.00256978,-0.0140424,0.014475,-0.0175425,-0.0145,0.00634506,-0.0019638,0.0144778,-0.00962758,-0.00187869,0.00736299,-0.0136701,-0.00544978,0.0177024,-0.00820258,-0.00538163,0.00295257,0.00456958,-0.00782025,0.0091525,0.0148237,-0.000400232,0.00990128,-0.0206099,0.00205024,-0.0115172,0.010208,-0.0146162,-0.00614264,-0.0117395,-0.00241252,0.000759077,-0.00478433,0.0094573,-0.0142306,-0.00536191,-0.014225,-0.00989067,-0.00158461,-0.0121447,0.00374418,-0.0117769,-0.00333556,-0.0116874,0.00522624,-0.0148768,-0.000843309,0.0123654,-0.00526213,0.00149,-0.00528041,-0.011171,0.0193966,0.001377,0.00726834,-0.000196492,0.0154884,0.00900206,0.0056475,0.0141959,0.00287007,-0.00776542,0.0241381,0.00659862,-0.00060274,-0.0137805,0.00460726,-0.00353538,0.0196796,-0.000331054,-0.00729975,-0.008442,0.000741613,-0.00783791,0.00588327,0.00865889,0.0199245,0.00995755,0.00370504,-0.00396843,0.00321828,-0.0107753,-0.00894346,-0.0081103,-0.00917606,-0.000255322,-0.0111309,0.00181967,-0.0170701,-0.00887853,0.00772749,-0.00223857,0.00277295,0.00307291,0.0132222,0.00658944,-0.0048659,-0.010868,0.0244702,0.00325372,0.00917172,0.000680533,-0.00920295,-0.00146611,-0.00544047,-0.0144234,-0.0219497,0.0136335,0.00525446,0.00743922,0.0154137,-0.00511845,0.0123931,-0.00386002,-0.00353992,-0.010152,-0.0116354,-0.0123285,0.00189182,-0.00218099,-0.00847566,0.00647329,0.00541951,-0.0197526,-0.00251602,-0.0114265,0.000249416,0.0029507,0.0147536,-0.0092251,-0.0164624,-0.0143849,0.00756634,0.00451889,0.00960185,-0.00397928,0.00864413,0.00913888,0.00848927,0.00149398,0.000827892,0.00832672,-0.0136993,-0.0111553,0.00610579,0.00505854,0.00275016,-0.012532,-0.0120372,-0.00158448,-0.0204689,-0.00253808,-0.0166968,-0.0121378,0.0013753,-0.0193672,0.0146448,0.0100139,0.0105842,-0.00802804,0.00500589,0.00461507,-0.00656017,0.0225434,-0.00963199,-0.0130361,0.00353629,0.0100602,0.00673778,-0.00595979,-0.0143937,0.0101101,0.00449632,-0.00597193,-0.0105105,0.0170527,-0.00389112,-0.00239995,-0.00247393,-0.0184827,0.0127711,-0.0111062,-0.0105091,0.00777381,-0.00632607,0.00436348,0.00467054,-0.0012526,0.00620053,-0.0104335,-0.0157321,-0.0165079,-0.021165,0.00160662,0.0272413,0.0155528,0.00192053,-0.0021773,-0.00188732,-0.000822976,0.000326795,-0.011362,-0.00203339,0.0237726,-0.0099455,0.0111519,0.00797962,-0.00454899,-0.0172739,-0.0180092,0.00678269,0.00292352,-0.000487508,0.00669922,0.00661903,0.00538472,-0.00603083,0.0143738,-0.00548993,0.00722689,-0.00797552,0.00453042,0.00804836,-0.0272981,-0.000974648,0.00214156,0.00162768,0.00505131,0.0279065,-0.00263174,0.0100949,0.00882088,0.0109824,0.00863808,0.0019599,0.00617958,0.00485099,0.0120073,0.00758989,-0.0119519,0.00763922,0.00973409,-0.019001,0.0116445,0.00779618,0.0104449,0.0171014,0.0129653,0.00216089,-0.00663443,0.0158392,0.0094384,-0.00606404,0.00612685,0.00748775,-0.000967545,0.00301836,0.00139868,0.0138204,0.00606802,-0.0064689,-0.00468607,0.0206496,-0.0170768,0.0179654,0.00295787,-0.0165426,0.00863215,-0.00787552,0.00680315,-0.0081029,0.0161485,0.006744,-0.0136192,0.00661793,-0.00623718,-0.0160657,-0.00262595,0.000905275,0.000572074,-0.0113359,0.0199457,0.00470989,-0.000318706,0.0114594,-0.000283954,-0.00354012,0.0110973,-0.0020871,0.013323,-0.00543411,-0.00495048,-0.00307646,0.00647155,-0.00447022,0.00870213,0.0208385,-0.0120906,0.00208786,-0.00323263,-0.00545667,-0.00310942,-0.00792696,0.0252333,-0.0106366,0.0105666,-0.00845685,-0.0111392,-0.0143749,-0.00391452,-0.00714918,-0.0148662,0.00659006,-0.0123768,0.00136848,0.0153087,-0.00147897,-0.00547529,0.00160475,-0.000953111,-0.00508115,-0.00443055,-0.00779088,0.00197663,-0.00517277,-0.00413684,0.00555728,0.0035479,0.00163195,-0.00649201,-0.0098845,0.0123732,-0.0189434,0.00249258,-0.0112273,0.0109289,-0.00647614,-0.00109116,0.00353228,-0.0181995,-0.00883499,0.0027255,-0.00337987,0.00111424,0.00178615,0.0226162,0.0106735,0.00580555,0.00567661,0.00745906,-0.00363383,-0.00273471,0.00399702,-0.0104997,0.00448354,-0.0182919,0.0012567,0.00242047,-0.00999759,0.00456697,-0.0148801,-0.0140954,0.00717156,0.00339392,-0.000148084,-0.00205809,0.00166813,0.00185007,-0.00907032,-0.00318447,-0.00753925,-0.000963463,0.01062,-0.00855838,0.0107509,0.00163068,-0.0213111,-0.0109342,0.00608265,0.0280138,-0.00216339,-0.00952895,0.000295782,-0.0109731,-0.028593,0.00830016,-0.0236142,0.0146147,0.00126515,-0.0030689,-0.00662695,0.0199339,0.0190222,0.00209366,0.000648432,-0.00877745,-0.0234488,-0.00549845,0.0125075,-0.00833286,-0.0043546,0.00379931,-0.00290523,0.00180736,0.00262491,0.00508792,-0.0125941,-0.00507166,0.00731054,0.0265085,-0.00929646,-0.00500678,-0.00645548,-0.00364698,-0.000602819,-0.00273518,0.00138832,-0.00139692,0.00312364,0.0047745,0.000461586,-0.0020429,-0.00735523,0.00072221,-0.00288788,0.0250677,0.00812846,-0.0130498,0.00965763,0.0166141,-0.0258737,0.00568974,0.00248587,0.00183715,0.0144355,0.00172998,-0.00915909,0.00698303,-0.0153076,0.00785604,-0.00849157,0.00995669,-0.00413512,0.0246755,-0.00148686,0.00201872,-0.0045829,-0.00195606,0.00547901,0.00531162,0.00548316,0.0049157,-0.012343,0.0127297,0.0121873,-0.00343394,0.00274855,0.00286336,-0.0198846,-0.00372951,0.0014361,-0.00057261,-0.00764703,0.0175334,-0.00136347,0.00156881,0.00380212,-0.00359039,0.00555946,-0.00707612,0.0136743,-0.00709239,0.0124774,0.00793837,-0.0131273,0.00540129,0.00519314,-0.0165395,-0.00665841,-0.00558026,0.00434799,-0.0108338,0.00332258,-0.00173631,-0.0138836,0.0227982,0.010299,-0.0145985,0.0048855,0.0114998,0.000750347,-0.00894272,-0.000176237,0.0175215,0.00740604,-0.00331383,-0.0112015,-0.00123434,-0.0161132,0.00116668,-0.0129961,0.0145553,-1.58449e-05,-0.00724261,0.017055,-0.0118787,0.00468316,0.0130507,0.00621468,0.00170297,-0.0129698,0.00627487,0.0130921,-0.00513502,0.0040819,0.019992,-0.0144425,-0.0304136,0.00768636,-0.00933033,-0.00349971,0.0203409,-0.00658123,-0.00983306,-0.0165992,-0.00235001,0.00416796,-0.00919134,-0.00659524,0.0042674,-0.0114566,0.0119656,-0.000941036,0.0141955,0.00139692,0.00180241,-0.0123055,0.00639009,0.0028333,-0.00746003,-0.00731621,0.00126237,0.0156933,0.0132726,0.00332492,-0.00730655,0.00862925,0.000950858,0.0100178,0.00958809,0.0013236,-0.0262518,0.00809014,0.00457932,0.00197077,-0.0086662,0.00395391,0.0148048,-0.00293496,-0.00310533,-0.0010508,0.00201313,0.017485,-0.0230337,-0.0211352,-0.00560471,0.0103115,-0.000625933,0.00260308,-0.0144625,0.0212921,-0.000658629,-0.00749357,-0.0211401,0.0201032,0.0210443,-0.0140961,-0.0135232,0.00454827,0.00322294,-0.0130288,0.00861748,0.00151045,0.00433476,-0.00970035,-0.0142257,-0.00235143,0.0021761,-0.00274885,-0.00350469,-0.00818394,-0.00687863,0.00713221,-0.00162758,0.00327657,0.0126105,-0.0034492,0.0101404,-0.00251395,-0.00623193,0.00515458,-0.0172411,-0.0164908,-0.00814481,0.0130193,-0.011436,0.0243786,-0.0103029,0.0040833,-0.011498,-0.00905365,-0.00310599,0.00840599,0.00889127,-0.0154481,0.0041662,0.00664187,0.00640952,0.0190633,0.00522804,-0.00696963,0.0112469,-0.00940053,0.0171643,-0.00983487,0.00690612,0.0113662,-0.00820099,0.0127759,0.00408074,-0.014369,-0.00180438,-0.0183111,-0.00961195,-0.00696573,0.00183553,-0.00632122,-0.0105243,-0.00405928,-0.00198362,0.00772265,-0.00829628,0.00564408,0.00172717,-0.00151109,0.00577557,0.0158663,0.00498405,-0.00987576,0.00239097,0.00545939,0.0057379,-0.000220676,-0.0126574,-0.00755472,-0.0110191,-0.00686365,0.000859474,-0.000478242,-0.00185729,-0.00339516,-0.000698179,0.00443112,-0.00833743,-0.00310011,0.0229022,0.00884605,0.00844316,0.0125965,0.00280026,0.00465656,0.0102158,-0.00744135,-0.00413788,-0.00481403,0.000124754,-0.0123319,0.0126939,-0.00295827,-0.0223635,0.0140411,-0.0057867,-0.0181132,-0.00986723,-0.0115751,-0.00530058,-0.0136609,-0.0161055,-0.0193787,-0.0165189,-0.00868476,-0.000744442,0.0101164,0.00405713,0.00325165,0.00322689,-0.0133675,0.00104676,-0.000457744,0.00848669,-0.00599326,0.00790698,-0.01394,0.00611211,-0.00262169,-0.000477286,-0.00404796,-0.00501931,0.0030454,-0.0103916,-0.00326619,0.00675957,-0.00256103,-0.00417466,-0.00114794,-0.021799,0.0036385,-0.00207392,-0.00319721,0.0101946,-0.0155266,0.00220365,0.00496634,0.000446286,0.00274735,-0.00360071,0.0207592,-0.00962151,0.00160917,0.00479001,0.0100809,0.00967847,0.00488113,0.00698666,-0.00664588,0.000966148,-0.0157607,-0.00666306,0.0238095,0.0120119,0.00938461,-0.00631229,0.0094898,-0.014111,0.00143337,0.00718987,-0.00050426,0.00491338,0.0107299,-0.00184502,0.0107611,-0.0147852,-0.00326748,-0.0226567,-0.000457045,-0.0178863,-0.00357791,0.00229536,0.010325,-0.0113449,-0.0101837,-0.00408877,-0.0135101,0.00201175,-0.00583735,0.0108808,0.00561915,0.0111232,-0.0134083,0.0105346,0.00573607,0.00332081,-0.00592082,0.0124726,-0.00421269,-0.0111161,0.00766898,-0.00717037,-0.00295321,-0.00464831,0.00123109,-0.0200484,-3.63328e-05,0.0310649,-0.0135923,-0.00662321,0.00736744,-0.00249539,-0.00464078,-0.00204649,-0.00339364,-0.0132056,-0.00715276,-0.0150152,0.0155927,0.011525,-0.00330041,-0.00895276,-0.00849272,-0.00488081,-0.00470381,-0.00784774,0.00396486,-0.00576014,-0.00300144,-0.00999737,-0.00421514,0.00460954,-0.00216214,-0.017864,0.00164714,-0.00291271,-0.00814576,0.00641552,0.00197877,-0.000661636,-0.00135984,0.00174547,0.00886015,0.00142223,-0.000923511,0.00795141,0.00731698,0.0052648,-0.0055316,-0.0123489,0.0145023,-0.00826813,0.00659343,0.0100832,-0.00928757,0.00903903,-0.00253965,0.00411859,0.0164967,0.00910577,-0.0082363,0.00601088,0.000414031,-0.0169209,-0.0251926,-0.00933824,0.0216614,-0.00875363,0.0128777,0.0116974,0.00828749,-0.0133931,0.00242342,2.69704e-05,-0.00554362,0.00514794,-0.00282803,0.00701244,-0.000478721,0.00890817,-0.00554849,0.00795571,0.0146581,0.0044227,-0.00397001,0.000338404,-0.0199893,-0.00777474,0.00863281,0.0124839,-0.000506068,-0.00751188,0.00865354,0.00488178,-0.0035011,-0.00762672,0.00337932,-0.0273589,-0.0108274,0.0135475,0.00521224,-0.00361157,-0.00161245,-0.00895241,-0.00509513,0.000724509,-0.0144904,-0.0100761,0.00213341,-0.00634177,-0.00813117,0.0230981,-0.0172887,0.00075788,0.00859283,0.0184439,-0.00754558,0.00478445,0.00199879,0.0165523,0.00525069,-0.0160791,0.0106347,-1.70883e-05,0.00288157,-0.013287,-0.000579464,0.0112806,-0.00127893,0.00582261,-0.00118514,-0.000422364,-0.000702345,-0.0101145,0.0331574,-0.00032401,0.0148632,0.0130865,0.0103943,-0.00273766,-0.0130879,-0.00217685,-0.0266476,0.00872698,0.0061614,0.00531381,-0.00661701,0.00867967,-0.00645612,-0.00810714,-0.00268608,-0.00804637,-0.016449,-0.0116537,-0.00191618,0.0121598,0.00165509,-0.0037025,0.00928861,-0.00919802,0.0192711,-0.00297329,0.00177728,-0.00862005,-0.00831138,0.00390824,-0.00648067,0.00940639,-0.00516738,-0.0035318,-0.00281445,-0.00375379,0.0231831,-0.000173276,0.0111094,0.0081672,-0.00623076,-0.00100289,-0.00907561,0.0221205,0.00119025,0.00504731,-0.000218556,0.00734289,-0.0158718,-0.0143646,-0.00964551,-0.0234245,-0.0014062,0.0139611,-0.0170923,0.00634769,0.010971,0.00591978,0.0107591,-4.74144e-05,-0.0109357,0.011555,0.0111693,-0.0154075,0.00322829,-0.00996123,0.0185611,0.0069829,-0.0166436,0.0170265,0.00550934,0.00788045,0.0106896,-0.015065,-0.00226097,-0.00165459,-0.00383513,0.0158918,-0.0075217,0.00118225,-0.00936509,-0.0044286,-0.00104508,-0.00346245,0.00189903,0.000610236,-0.00220433,0.00995669,-0.0131507,0.00348857,-0.00407596,-0.0203395,-0.022477,0.00278708,-0.000522903,0.00196357,-0.00590879,-0.00690547,0.0092169,0.0132973,-0.00882456,-0.00647696,0.00624449,-0.00159997,0.0116903,-0.0040091,0.00743094,-0.00542636,-0.0209641,-0.00170837,-0.00216465,-0.00219275,0.00263638,-0.0110857,0.0026884,-0.00306726,0.00182903,-0.0055373,0.0224007,0.0196619,0.0105231,-0.0075852,0.000219531,0.00881683,-0.00937958,-0.00462694,0.00956663,0.0222386,0.00750327,-0.00484069,-0.0070236,0.0126048,0.0096566,0.00246479,0.00596578,0.0217185,-0.0154435,0.0175295,0.0051238,0.00205334,-0.0240843,-0.00625063,0.00528737,-0.0044037,0.011672,-0.00860009,-0.0110032,0.0150445,0.00641287,0.0224737,0.00384631,0.00438594,0.00399046,-0.00185922,-0.00388936,-0.0290008,0.00774705,0.00461129,0.0150279,0.00490436,-0.0186995,-0.00646775,0.00232339,-0.00283715,0.00498053,0.0126851,0.00895754,-0.0123755,-0.00923978,0.0075258,0.00876323,0.000459939,-0.00940314,0.00127787,0.00665478,-0.000536905,0.0197871,-0.00918932,-0.0140258,-0.0106627,0.00616378,-0.0161103,0.00128705,-0.0168053,0.0118358,-0.00218011,-0.00908305,0.00564076,-0.00199767,0.0114858,-0.00433295,0.00600388,-0.00236156,-0.0179199,0.0182798,-0.00506077,0.006268,0.00280331,0.016771,-0.00141982,-0.000178453,0.00822575,-0.0109596,-0.0157365,-0.00209966,0.0037326,-0.00453347,0.00642411,-0.010192,-0.00836498,0.00947414,-0.00622285,-0.014108,-0.00698112,0.00128706,-0.00137801,0.00512316,-0.00276956,0.00606649,0.00226273,0.0139403,-0.0218271,0.0234426,-0.0113061,0.00741682,0.00597005,0.00520094,-0.0088854,0.00302756,-0.000259915,-0.00283395,0.00768371,0.00741882,-0.00296302,0.0113245,-0.00814943,0.0217314,-0.00659408,-0.00542061,0.00886376,-0.00429353,-0.0115688,0.0106209,-0.00282501,-0.0083977,0.00447907,-0.00503689,-0.00354284,0.0135978,-0.00426988,0.00663169,-0.00845827,-0.0138003,-0.0059118,0.00108478,-0.00549507,0.01593,-0.00282318,-0.00112989,-0.00348155,-0.0170262,0.0080835,0.0118344,0.00471444,0.00765917,-0.00847966,0.00251218,0.00379019,0.0202992,-0.0109343,-0.00835256,0.000508935,0.0161431,-0.00391715,-0.00581057,0.00440952,-0.00424955,-0.00531416,-0.00547423,-0.00327498,-0.00730491,-0.00997231,-0.0134283,-0.00532652,-0.0129058,-0.000881881,0.00112206,0.0022626,0.0038735,-0.0182693,-9.23537e-05,-0.00421649,0.0142825,-0.000253789,0.00509229,0.00804348,0.0138828,0.00354784,0.00225486,-0.00459122,-0.00378709,0.00947422,-0.00863928,-0.00707491,0.00835035,-0.0014756,-0.0107538,0.00433559,-0.0189202,0.0088268,0.0125524,0.000649376,0.0108927,0.00914508,0.00772563,0.0164089,0.00986773,0.00228249,-0.00955078,-0.0272176,-0.000593428,0.00246192,-0.0088258,-0.00116361,-0.0135058,0.0254574,0.001255,-0.000561035,0.00349471,0.0227179,0.00676158,-0.0122664,-0.00357327,-0.00767842,0.00688424,-0.00486295,0.00123153,0.0112619,0.000483198,0.000746334,-0.000450186,-0.00175089,-0.0103433,-0.00831666,0.00502147,0.00584551,-0.0151973,0.00577291,0.0145989,0.00227575,0.00254226,0.014484,-0.00184643,-0.0065839,0.00435814,0.00153262,0.0190174,0.00913439,0.00920988,-0.00950571,0.00353574,0.00192788,-0.0241361,0.00234004,0.0138054,0.00309708,-0.0149307,0.0133769,-0.0198185,-0.0110503,-0.00775715,-0.00429979,0.00574027,5.71023e-05,0.00642243,-0.00798268,0.00774252,-0.0191189,0.00867549,-0.00426647,0.00916828,-0.0124996,-0.0105318,-0.00584791,0.00446305,0.00293054,-0.0111193,0.00984322,-0.00745119,0.00522384,-0.00387376,-0.00384496,0.0175577,0.00169941,0.0100491,0.0190751,0.0080359,-0.0101755,0.000278849,0.000478104,0.00301216,0.00423143,-0.0048769,0.0204237,-0.00816634,-0.000749245,0.0074722,-0.00601276,0.00150649,-0.00268657,0.0188892,0.00943379,-0.00677915,-0.0115969,0.0089472,-0.00379735,-0.00483504,-0.00874173,-0.0102139,0.00672843,0.0141833,-0.00820458,-0.00435393,-0.00778946,0.0147343,-0.00321132,-0.00330737,0.00338665,-0.00367381,-0.00786275,0.00303296,-0.00206118,-0.0136295,-0.00161432,0.0103051,0.0102849,-0.00614724,-0.0124875,-0.00037602,-0.00886732,-0.0082623,0.00784729,-0.0133847,-0.00284554,0.0169509,-0.0174338,-0.000196996,0.00479784,-0.010564,-0.0082433,0.0115939,0.00890775,0.00717025,0.00841925,0.0155642,-0.00260407,-0.00661243,-0.0176517,0.00701286,0.01434,-0.00336988,0.0108901,0.00629405,0.00686014,0.0150793,0.00803918,0.00489101,0.0122217,1.89852e-05,-0.00827518,-0.00190448,0.0117849,-0.00332692,-0.0111548,-0.00471909,0.00850454,-0.00762836,0.000496172,0.0186837,-0.00578753,0.017829,0.0133765,-0.00131135,-0.00773781,0.0175632,0.00405569,0.00342694,0.00861869,0.0122972,-0.00608874,0.0223968,0.000669524,-0.00285128,-0.00765765,9.23075e-05,0.00875948,0.00441118,0.010981,0.00601259,0.00631796,0.00864965,0.00509671,-0.0103494,0.00743521,0.00348971,0.0205393,0.0140038,0.000600591,0.00254024,-0.0141009,-0.00319797,0.00940643,-0.0166472,0.00312762,0.00052919,-0.0148603,-0.0038687,0.00689105,0.0109912,-0.011395,0.00642922,0.0145642,0.0109,0.00315884,0.00953268,0.00440074,0.00321462,0.006226,0.000171206,-0.0286416,-0.00640174,0.0106554,0.00587555,0.00410073,-0.00430081,-0.00870674,0.000381792,0.0142073,0.0202906,0.0160284,-0.0150751,-0.00712059,0.0102509,0.011973,-0.00385174,-0.00290533,-0.0243855,-0.0100657,-0.00900265,-0.0200025,-0.0140171,0.016361,0.00486274,0.000879408,-0.0121626,-0.00296474,-0.00455643,-0.0015914,-0.00671806,-0.0138121,-6.46736e-05,-0.0188596,0.00221967,-0.00339432,0.0200279,0.00431263,-0.00304417,0.00552339,0.00948162,-0.0125437,0.0023803,-0.00346566,0.0140734,-0.0223426,0.0177135,0.00503707,-0.00264629,0.0129083,0.0057321,0.00708758,-0.000102375,-0.0169537,0.00794839,-0.00909455,-0.0072175,0.00343926,-0.0158384,-0.0029034,0.00298744,0.00656607,0.00869551,-0.018163,0.00682472,0.0361334,0.0105948,0.00597268,0.0153023,-0.0178513,0.0139562,0.0171603,0.0148679,0.00875705,-0.0125218,-0.00953345,0.00252901,0.00018874,0.00640166,-0.00133526,-0.00312686,0.0193185,-0.0115525,-0.00358591,0.00719921,-0.0201325,0.0111458,-0.00558613,0.00275036,-0.01899,-0.00680266,0.0219774,-0.010257,0.00293306,0.00296952,0.0018498,-0.00606049,-0.0121746,0.00941469,-0.00849525,-0.00822167,-8.4659e-05,0.00220824,-0.00092177,0.0177619,0.00838381,-0.00161046,0.00298403,-0.0117014,-0.00413285,0.00400995,0.0141886,0.0177138,0.00422847,-0.021771,-0.0059026,0.00330735,0.0043667,0.00559489,-0.000487899,-0.00896307,-0.00737596,0.0188193,0.000319024,0.0103894,0.00176427,-0.0180461,0.0051351,0.0174148,-0.00485532,-0.00939084,0.00220431,0.0109865,0.0138083,0.00688976,-0.00387169,-0.00144578,-0.00606232,0.012869,0.00864778,-0.00128106,0.00603547,-0.0143452,-0.00971108,-0.00773408,-0.00932037,-0.00938788,0.00416315,0.00139053,0.0195991,0.0108091,-0.017981,0.00643951,-0.0123022,-0.00513155,-0.0149168,-0.0109231,-0.0164899,0.0019018,0.0024012,0.000335192,-0.0264884,0.0131379,-0.0137264,-0.0033025,-0.00611182,-0.0141997,-0.00983391,-0.033426,0.00768352,-0.00868985,-0.0119521,0.00241174,-0.00865111,0.00236714,0.00543823,0.000464769,-0.00840144,0.00450655,-0.0128097,-0.0172323,-0.0067141,-0.000982713,-0.0129454,-0.00276043,-0.00885898,-0.00468989,0.0242582,0.00598127,-0.00105964,0.000343278,-0.00309627,-0.00769096,-0.00895867,-0.00916159,-0.000878508,-0.0270011,-0.000479431,-0.0115845,0.0098217,0.0015533,0.0136817,-0.00393436,-0.000597237,0.00552315,-0.000699245,0.0123069,-0.00268772,-0.00637338,-0.00783673,-0.0121663,-0.00641843,-0.00204317,-0.00673891,-0.0014302,-9.76798e-05,-0.00132076,-0.0033173,-0.00461079,-0.00966586,-0.0104005,-0.000336217,-0.00662467,-0.0199882,-0.00528051,0.0118489,-0.00254181,-0.0103041,0.00527385,0.0084272,-0.00437852,0.00411907,0.00217563,0.00312639,-0.0200977,0.00681986,0.00295727,0.00590041,0.00687963,-0.00180373,-0.00165405,-0.00742966,-0.00945006,1.15209e-05,0.0112506,0.00532818,-0.00759923,0.00268954,0.00765714,-0.00406708,0.00257196,-0.00750392,-0.0163047,-0.00978518,0.000345968,0.000237362,0.0167015,0.0233387,0.00829056,-0.00410358,0.0135329,-0.00633073,0.00846196,0.0222931,-0.00889653,-0.00836272,0.0101638,-0.0149498,-0.0133572,-0.00874904,0.0013406,0.0130284,-0.00575621,-0.00415538,-0.00579719,-0.00186784,0.00338314,0.00675863,-0.0170975,-0.01645,0.0084616,-0.00338716,-0.00223374,0.01326,-0.0109735,-0.0070918,-0.00216653,0.0137604,0.0132648,-0.00955075,0.00188324,-0.00572921,0.00796401,0.00167907,-0.00448865,0.00435985,0.00253791,-0.00473532,-0.00348223,-0.00791579,-0.00883402,0.000782446,0.0180875,-0.0123554,0.00128411,-0.011548,0.00437613,-0.0109221,0.00120936,0.00856414,-0.00691129,0.0141227,0.0224109,0.000212967,-0.00130192,-0.00137985,0.00991915,0.0039403,-0.00284098,-0.00733468,0.00661467,0.00273467,0.0194668,-0.0126441,-0.00740305,0.0141377,0.00592465,-0.0150741,0.00330366,0.00856082,0.00316907,-0.00562893,0.00332396,-0.00649785,-0.0208013,0.00199367,0.000234689,0.00520232,0.00312234,-0.00824653,-0.00122384,-0.00105936,0.0181579,-0.0111388,-0.0149972,-0.0145862,-0.0034059,-0.0073018,-0.00813545,0.0168423,0.00486704,-0.00341132,0.0156579,0.00643195,-0.0106304,-0.000166029,-0.00730943,0.0121621,-0.0112996,-0.00331108,-0.0126791,-0.00236829,-0.011819,0.013055,-0.0182355,0.0196387,-0.0148794,0.00424876,-0.00133144,0.00600748,-0.00461379,0.00357531,-0.00245045,0.00187668,0.00316827,-0.0155414,-0.00386817,-0.00779194,0.00351654,0.00652548,0.0212251,-0.00603353,-0.00669971,-0.0115844,-0.00979065,-0.00785292,0.00218646,-0.00826074,0.00365738,0.00804679,-0.0150221,2.90939e-05,-0.00247598,0.00782283,0.00387566,0.00317892,0.0153723,-0.0124277,-0.0029969,0.00949613,-0.00391626,0.00222969,-0.00211735,-0.0130122,-0.0141593,-0.0002675,0.00348505,-0.0148034,0.0288643,-0.00335455,0.00358322,-0.00694697,0.00696178,0.00575133,0.00547177,0.00560244,-0.020173,0.00317865,-0.0172718,0.00731295,-0.00347914,-0.00780481,-0.0010502,0.00462602,0.0201975,-0.0174026,0.00275787,0.0140536,0.00424929,-0.00447432,0.0120717,-0.0106145,-0.000815932,-0.00814425,0.00900133,-0.0108735,0.00164259,0.0164333,-0.0126715,0.00341813,0.0187918,0.0136211,-0.00768304,-0.0109249,0.0129377,0.00388365,0.00652179,-0.00794693,-0.0081682,0.013317,0.00717255,0.0147673,-0.0129156,0.0194065,0.0064785,-0.00901632,0.0221758,-0.00803829,0.00933909,0.00300056,0.00969106,0.00766817,-0.0104298,0.0126618,-0.00941041,-0.00820272,-0.000877772,-0.00632497,-0.00275218,-0.00465274,-0.00772776,-0.00976955,-0.00967207,-0.00449986,0.00127799,-0.00715613,-0.00168954,0.00257893,0.0035789,-0.0118804,-0.000889568,0.00828779,-0.0145735,-0.0128226,0.0068565,-0.00160065,-0.0106315,0.000967409,-0.0163226,-0.0182561,-0.000903275,-0.00145565,-0.00556925,-0.00365818,-0.0246181,-0.0010605,0.00247616,-0.00591465,-0.0024445,-0.0252645,0.00786549,-0.0142535,0.00835343,0.00164445,-0.000942858,0.0131966,-0.0216618,0.00586263,0.00177428,0.00694064,0.00875378,0.000466221,0.000411951,-0.000332797,-0.000603042,0.00259803,-0.0147137,0.00755137,-0.00127515,0.0127639,-0.0030699,0.000556265,-0.012336,0.00149378,0.00629148,0.00642939,-0.0141311,0.00972689,0.000913493,-0.00280159,-0.00128368,-0.00185887,-0.0040163,0.00654143,-0.00307125,-0.00457272,0.0081966,-0.00295449,-0.00118351,0.0186503,-0.0174298,0.0108862,0.0016701,-0.0154425,-0.00147134,-0.000856162,-0.0156731,0.000417012,-0.00740987,-0.0244215,0.00573315,0.00396451,-0.000168499,-0.00209377,-5.92344e-05,0.0235258,0.00216873,0.0196318,-0.00512713,-0.00693729,0.000374779,0.00537546,-0.0128529,0.00370309,0.0237251,0.0234473,-0.0112978,-0.00362703,0.0056883,0.0196689,-0.0115258,-0.0108577,-0.00134554,-0.00488038,0.0178713,-0.0133177,-0.00560382,-0.0114541,-0.0051478,0.00612704,7.07046e-05,0.0130132,0.0128791,-0.00013839,0.00212697,0.00844315,-0.00705157,-0.00983811,0.000422848,-0.00931127,0.00138526,-0.00207129,-0.00211275,-0.0159651,0.00999083,-0.00232596,0.0112301,-0.0107585,0.0140755,0.00953968,0.0053234,-0.00144144,-0.0168307,0.0016198,-0.016921,0.00875707,-0.00864085,0.000297109,0.00239435,0.00741976,-0.00506083,-0.000860335,-0.0088223,-0.0194987,0.0218755,-0.000167272,-0.017593,0.00939214,0.0203599,0.00640497,0.00309999,0.00811528,-0.00620756,-0.00767932,0.00683246,0.0145897,0.00831155,-0.0100568,0.000936156,-0.0139186,0.00803996,0.00249288,-0.013993,0.0145002,0.00373781,-0.0034522,-0.012902,-0.0168469,-0.0021894,-6.37332e-05,0.0126113,-0.00208483,-0.00550497,-0.00111582,0.0163323,0.00645673,-0.00499049,-0.000714318,-0.0155472,0.0107746,0.0106931,8.33158e-05,0.0024112,-0.00579558,-0.0212475,0.0042643,-0.00938845,0.0152419,-0.00178818,-0.0107612,0.016331,-0.0111528,-0.00141852,-0.0162676,-0.0223962,0.0115793,-0.0101445,-0.00232695,0.00290756,-0.0113763,-0.00518197,0.00199799,-0.0105258,0.00862788,-0.000686669,0.00930001,-0.00639223,0.00486911,-0.0103503,-0.008666,0.0110642,-0.0186885,-0.00390888,0.0052265,-0.0069048,-0.0157532,-0.0147897,-0.00919477,-0.0005814,0.00628198,0.0107951,-0.00703086,0.00470482,0.0054008,-0.00593452,0.0164918,0.00831308,0.00562025,-0.00853006,0.00809229,-0.0041831,0.00293546,0.000482018,-0.014362,0.00530581,0.00719338,0.0287348,0.000709237,0.0102585,0.0104764,0.0105605,0.00565876,-0.00504819,-0.00328202,-0.00148581,-0.0102932,-0.0110176,0.00655939,0.00860795,0.00224,0.00223242,0.0100582,-0.00794617,-0.0142909,0.00134492,0.00818341,-0.0229794,0.00420828,0.010058,0.000649682,-0.0228466,-0.000543561,-0.000778145,-0.000822389,0.0210565,0.00799633,-0.00189777,-0.0126244,-0.00981969,-0.0121518,-0.00840874,0.00743557,0.0118293,0.00295046,0.0211488,-0.00271724,-0.0100781,0.000380622,0.00800641,0.011379,-0.0117334,0.00828546,-0.00651261,0.01062,0.00443467,-0.00148366,-0.00337987,0.00114329,0.00127087,0.00366731,-0.0142296,0.00497355,-7.07501e-05,-0.0127209,0.0052789,0.00411101,-0.00630477,0.0127496,0.00436054,-0.00574911,0.00196352,0.0181814,-0.0103511,-0.0184067,0.0148344,-0.00136314,-0.0146131,0.0199258,-0.0172287,0.0085901,-0.00910245,0.000135148,-0.00526081,-0.0152329,-0.0095587,0.00230524,-0.00165957,0.00547378,0.000600315,-0.0120217,0.00662056,0.0107854,0.00714593,0.00336934,0.0166057,-0.0067135,-0.00497383,0.00209583,0.0116148,0.00157712,-0.0106042,0.00205614,0.0065217,0.0106034,-0.000866112,-0.0231174,0.0108256,0.00933276,-0.0095417,0.0108835,0.0117818,-0.00327637,-0.0158054,-0.000600934,-0.00241665,0.007592,-0.0120574,-0.0263451,0.0199701,-0.00464276,0.00369885,0.00789417,-0.00158674,0.00373706,-0.00355112,0.00335373,0.00127412,0.00531357,0.00163298,0.00117221,0.0139377,-0.00719322,0.0120316,-0.00470486,-0.0185548,0.00107488,-0.00656966,-0.000512932,-0.00603657,-0.00248845,-0.00109855,-0.00623908,-0.00242783,0.0014554,-0.0108162,-0.000848626,-0.0137293,-0.00649224,-0.00255941,0.00308139,-0.000132127,0.00375925,-0.0104465,-0.00138583,-0.00453191,-0.000954134,-0.00803121,0.00490677,0.00851773,0.000693447,-0.00307877,-0.00224474,0.0126387,0.0103047,-0.000229034,-0.00964834,0.0053897,-0.0086003,-0.00875968,0.00785306,0.0113327,-0.0140849,-0.00148743,0.0118972,0.000868653,-0.000705503,-0.00132706,-0.0165015,-0.0129693,0.00212895,-0.00652565,0.00570818,0.00759383,0.0098485,-0.00491378,0.0062984,0.0143165,-0.00647767,0.00436083,-0.00393189,0.0303399,-0.021168,0.00217842,0.00749236,-0.00920315,-0.0132667,-0.0182677,0.0182219,0.00378389,0.0208421,0.010442,0.00831322,0.00600844,0.00279525,-0.00653804,0.00276074,0.00658828,0.00650997,0.00567383,-0.00676883,-0.00310505,0.00973395,0.0148877,0.0025805,0.00655428,-0.000968059,-0.000188339,0.00886791,0.000985846,-0.0128148,-0.0045959,0.0193997,0.00845672,0.00786848,0.0124737,0.00758275,-0.00631915,-0.00662558,0.00269297,-0.0197254,-0.0101632,-0.00202714,0.015952,-0.000976315,0.000579792,0.000877029,0.000563552,0.0120437,0.0073737,0.00726145,-6.8351e-05,-0.00737066,0.00642728,-0.00306287,-0.00901866,-0.00926137,-0.00760846,0.00637777,-0.0059448,0.003583,0.0124523,0.006359,0.000753599,-0.000216493,0.0153,-0.0146474,0.004465,0.00311462,0.00204569,0.0169497,-0.0188842,0.00555067,0.00928107,0.0143835,-0.0059119,-0.00207101,-0.000754956,-0.00414468,0.00761123,-0.00676793,-0.00029932,0.00521635,0.00272413,0.0048801,-0.00250099,0.0161567,-0.00713952,0.00453684,-0.0039421,-0.0144104,-0.0187549,-0.00349525,-0.0230267,-0.00300298,-0.00771531,-0.00291447,-0.0200045,-0.00599188,0.015845,-0.00611733,0.0210292,-0.0205542,0.00319218,-0.00204563,0.00513539,0.0147896,0.00878676,-0.0166358,0.0155333,-0.00676152,-0.0128343,-0.00376229,0.00762506,-0.010294,-0.00736835,0.0261754,0.00562512,0.00174025,-0.00914053,0.027968,-0.00580688,-0.0158057,0.00323808,0.000830977,-0.00493433,-0.00474633,-0.00558605,0.0113371,-0.00392146,-0.00256924,0.00310558,0.00345769,0.003826,0.0127052,-0.00354067,-0.00522475,0.00644396,-0.00884613,0.00290515,0.0157266,0.00255021,0.000548356,0.0074078,-0.00864929,-0.010082,-0.0197042,-0.00666265,0.0105245,0.0156922,-0.00927152,0.00983441,-0.00922549,-0.00960564,-0.00534091,-0.0126322,0.000805937,0.00312322,0.00988256,-0.00461402,0.00212472,-0.00677043,0.0106449,-0.0157647,0.0073413,-0.00425417,-0.00448572,-0.00983942,-0.00889089,0.0137034,0.00316415,0.00316055,0.009949,-0.00153822,-0.00197246,0.00232573,0.00179134,-0.00230581,-0.00814813,0.0129796,-0.00888513,-0.0135857,0.0227257,0.00273341,-0.0161398,-0.00802017,-0.00191031,0.0138269,0.00211289,0.0148883,-0.0103364,-0.0110568,0.00366905,-0.00650968,6.39321e-05,0.0171741,0.0042201,0.00288467,-0.00677864,-0.0236401,-0.00521509,0.00386338,-0.0156264,-0.000450844,0.00199854,0.00275204,-0.00191653,0.028445,-0.00753669,4.81162e-05,0.0132013,-0.0132341,0.00486437,0.0101112,-0.00479346,0.00370463,0.0148831,-0.00986637,-0.00457503,-0.0116796,0.0183445,0.0109387,0.00186703,-0.00206309,-0.00166816,0.0237574,0.0077867,-0.00771959,0.0130766,0.0032259,-0.00604864,-0.00775479,0.00458342,-0.00114002,0.00506482,-0.00777207,-0.00553908,-0.00311494,-0.00458312,0.0102352,-0.00384224,0.016287,0.0100973,-0.0151634,-0.00872448,-0.00958891,-0.00174261,0.00736179,-0.0237658,0.00192378,-0.0146752,-0.00182098,0.000755671,-0.013935,0.0219988,-0.00190271,-0.0131141,-0.00766998,0.00227119,-0.00348883,0.00388626,0.00429008,-0.013187,-0.00633287,-0.0136069,-0.00160599,0.00164585,-0.0201495,0.00352189,0.0198732,0.00328311,0.00241417,-0.0206048,-0.0109477,-0.00453773,-0.00245362,-0.00112454,-0.0201685,-0.0178752,-0.0126408,0.00500494,0.000546279,-0.00531681,0.00320627,0.00209448,-0.00815815,0.00117129,0.0246911,0.0142671,-0.00418855,0.00933605,-0.00505106,-0.00444856,0.015759,-0.00577578,-0.0164582,0.00243635,-0.00425439,0.00433819,-0.00122278,0.00389757,-0.00374026,-0.00987981,-0.00209163,-0.00605438,0.0116941,0.00113634,0.0213363,-0.0128948,0.0102264,-0.013283,0.00186168,-0.0104312,0.00118655,0.00858552,-0.00654981,0.0104788,0.00279335,-0.0137654,0.00863953,-0.0226075,0.00343747,0.0145344,0.0051327,-0.0248639,-0.0128219,-0.0036163,-0.000733431,0.0145018,-0.0119697,-0.0211267,-0.0041289,0.00886305,0.00452229,-0.0150463,0.00307699,4.69822e-05,-0.00696322,-0.00682874,-0.0200743,-0.00927088,0.0130574,-1.40906e-05,-0.00485521,-0.00299384,0.000513623,-0.000226068,0.000635955,-0.0137412,-0.00442636,0.0131395,-0.0125286,-0.0194387,0.0110351,-0.00830972,-0.0045837,-0.0016644,0.0124008,0.00325878,-0.00264035,-0.00297441,-0.0122042,-0.003832,-0.0141505,0.00675852,0.00727344,-0.0185058,-0.00192023,-0.000581018,0.0132804,-0.00751754,-0.00707133,0.00482044,0.0158206,-0.00630979,-0.00951064,0.00875093,0.00406175,0.00966636,-0.00814347,0.00318556,0.00510865,-0.0140795,0.00856955,0.00204592,0.00201338,-0.00380862,-0.00493045,0.0196169,0.00377394,-0.0184869,-0.00396377,0.00138608,0.00229192,0.00962246,-0.00264124,-0.00491804,-0.0102495,0.0175529,-0.00354266,0.00869636,0.00989441,0.00220342,-0.00243448,0.0049202,-0.00269347,-0.0090697,0.000418498,-0.0194088,-0.011425,-0.00438693,0.00574764,-0.0048742,-0.00650796,0.00945423,-0.0196258,0.00784126,0.0122597,-0.00137426,0.0198793,0.00488029,0.00523544,0.0175976,-0.0090411,0.00136474,-2.64983e-05,-0.00757927,-0.00921543,-0.00135548,-0.00926423,-0.0147059,0.00156561,0.00402097,-0.000290609,0.000899913,0.001045,0.00675006,0.00398536,-0.00853314,-0.00609355,-0.00857508,-0.0192195,-0.0227647,0.0134776,0.00252116,0.0104128,0.020235,-0.00548618,-0.000209074,-0.0324519,-0.0160856,-0.00187057,0.0110054,0.00577277,0.00359226,-0.00747441,-0.024955,0.0113448,0.000968868,-0.0116465,-0.00677209,-0.00855469,0.012423,-0.0056009,-0.00105448,0.00686927,0.00781982,-0.00807235,-0.00732804,0.00269868,0.00518431,0.00474886,-0.00651424,0.00694035,0.00846187,0.00934536,0.00989785,0.0111519,-0.00413667,-0.00413681,0.0183786,0.0119794,-0.00920249,0.00016205,0.0158193,-0.0134149,-0.00565347,-0.00181268,-0.00549616,-0.0155516,0.00829568,-0.00782768,0.0122986,-0.00626576,0.00346855,-0.0100028,-0.0181839,-0.0168314,-0.0133474,-0.00851844,0.00479857,-0.0130455,0.0113414,0.00335198,0.000437516,0.00716498,-0.00646917,0.00392623,-0.00122889,-3.23882e-05,-0.0177351,-0.00342357,0.00450851,0.00574678,0.0205945,-0.00972214,0.00438552,-0.0197757,0.0218391,0.00190182,-0.000705767,0.00746203,0.0150891,0.016817,-0.0128265,0.00611705,0.0101705,0.00454691,0.00921042,0.0115158,0.00504888,-0.00611634,-0.00550915,0.0021005,0.00237289,0.016235,2.55702e-05,0.0125707,0.00569656,-0.0073934,0.00872643,-0.000120688,-0.0144904,-0.00326547,-0.00305803,0.0174946,0.00297741,0.0184236,-0.00510399,0.000814733,0.00322994,0.00816761,-0.00200953,0.00737799,0.00409372,0.0111219,0.00766282,-0.00023707,-0.00314077,0.00158827,0.00892401,0.00652003,0.0346801,-0.0118352,-0.00822562,-8.2931e-05,0.00456777,0.00653697,0.00233097,-0.000270372,-0.011279,0.0144444,-0.00482267,0.0153738,0.00798282,0.00209909,0.0106549,-0.0173863,-0.00168165,0.00865143,0.00920065,-0.0127174,-0.00253205,-0.0202586,0.0135362,0.0155252,0.00279249,0.0146865,-0.0120975,0.007645,0.000539277,0.00154498,0.00831517,-0.00296298,-0.01489,-0.002245,-0.0189222,-0.0140678,0.00144668,0.00777788,0.0179849,0.00647445,0.0135755,0.00307529,0.000292048,0.00161376,-0.00934712,0.023098,0.00363647,0.0166674,-0.00963274,-0.0120304,0.00306318,0.00259907,-0.0215442,-0.00718236,0.00511326,0.0151282,0.0077542,0.00821873,0.00963968,0.00587506,-0.00796023,0.0143421,0.00218863,-0.00656621,0.00110737,-0.0143997,0.0143674,0.00808063,-0.000753689,0.00695162,0.00380873,-0.00277486,0.00601959,0.00450979,-0.00876649,0.0164191,0.0181858,-0.0118101,0.00443442,-0.00278593,0.0106266,-0.000869323,-0.00249798,0.00718423,-0.00111669,-0.017817,-0.00515064,-0.018899,0.000499199,-0.00656707,0.00642241,0.0121134,-0.0043515,0.00975231,0.00670088,0.0103246,-0.0029123,0.00220877,0.000548118,-0.0164985,-0.00782883,-0.00788077,-0.0038801,0.00197631,-0.000760472,-0.0111113,0.0105467,-0.00913541,0.0225703,0.0119673,-0.0106585,0.00873516,0.00484639,-0.0120182,0.0117394,-0.00569944,-0.00753966,-0.00958755,0.000144868,0.00953237,-0.0105667,-0.00169902,0.0138163,0.002217,0.00165873,-0.0101952,-0.00589414,-0.00149242,-0.00880107,0.0174165,-0.00373618,-0.0119884,-0.0165919,0.00437479,0.0191543,0.022778,0.0099015,0.00385637,0.0102263,0.00554253,-0.00176027,0.00657864,-0.00817347,0.00412364,-0.00308209,0.0222864,0.00150215,0.0167921,-0.0017888,0.00188716,-0.0092601,-0.00763997,0.00486996,-0.0149745,0.00281742,-0.00965109,0.0207537,0.00232264,-0.00951454,0.0101235,-0.00922335,0.00323822,-0.000882998,-0.00182401,-0.00701717,0.00351955,0.00378183,-0.000155352,0.00946881,0.022232,0.0141922,0.0222517,-0.0101601,0.00821424,-0.00558798,-0.00836369,-0.00529378,-0.00633568,-0.00476421,-0.00797412,-0.00323735,-0.0025626,0.00647068,-0.0107077,-0.016281,0.0124302,0.00539558,0.00132414,0.0136439,-0.00297844,-0.0103102,0.000193698,0.00857072,-0.00721222,0.00806195,0.0111538,0.00910126,0.00475688,0.00338037,0.00245294,0.0146542,-0.0154587,-0.0124039,-0.00132925,0.000185787,-0.00582576,-0.00781545,-0.000681544,-0.00240977,0.0054091,0.0229996,0.00907859,-0.0135813,-0.0237031,-0.0016917,-0.00584032,0.00553359,-0.01499,-0.00223795,-0.00970408,-0.00026112,6.24781e-05,0.0151129,0.00215616,-0.0136095,-0.00104955,0.0135011,-0.0103494,-0.0122958,-0.0150072,-0.00965461,-0.000478683,0.00839327,0.0073453,-0.00127938,0.00537343,0.00899937,-0.0154622,-0.00267816,-0.00213421,-0.0158417,0.00179416,-0.00190703,0.00553804,0.00883969,0.00637437,-0.000104943,0.00628793,-0.022909,-0.000364767,-0.00494259,-0.0204527,0.0168918,-0.00591184,0.0123201,-0.00453654,-0.0136243,0.00644932,0.000487445,-0.0135108,0.00455877,0.0107916,-0.00228053,